{"learner":{"attributes":{"scikit_learn":"{\"n_estimators\": 100, \"objective\": \"reg:squarederror\", \"max_depth\": null, \"learning_rate\": null, \"verbosity\": null, \"booster\": null, \"tree_method\": null, \"gamma\": null, \"min_child_weight\": null, \"max_delta_step\": null, \"subsample\": null, \"colsample_bytree\": null, \"colsample_bylevel\": null, \"colsample_bynode\": null, \"reg_alpha\": null, \"reg_lambda\": null, \"scale_pos_weight\": null, \"base_score\": null, \"missing\": NaN, \"num_parallel_tree\": null, \"kwargs\": {}, \"random_state\": 42, \"n_jobs\": null, \"monotone_constraints\": null, \"interaction_constraints\": null, \"importance_type\": \"gain\", \"gpu_id\": null, \"validate_parameters\": null, \"type\": \"XGBRegressor\"}"},"gradient_booster":{"model":{"gbtree_model_param":{"num_trees":"100","size_leaf_vector":"0"},"tree_info":[0,0,0,0,0,0,0,0,0,0,0,0,0,0,0,0,0,0,0,0,0,0,0,0,0,0,0,0,0,0,0,0,0,0,0,0,0,0,0,0,0,0,0,0,0,0,0,0,0,0,0,0,0,0,0,0,0,0,0,0,0,0,0,0,0,0,0,0,0,0,0,0,0,0,0,0,0,0,0,0,0,0,0,0,0,0,0,0,0,0,0,0,0,0,0,0,0,0,0,0],"trees":[{"base_weights":[-3.03726524114608765e-01,-4.20740038156509399e-01,-1.54786944389343262e-01,-4.78828340768814087e-01,-3.50889325141906738e-01,-2.68084406852722168e-01,2.98183504492044449e-02,-4.14902269840240479e-01,-2.89493054151535034e-01,-3.77505570650100708e-01,-1.90104946494102478e-01,-7.51740559935569763e-02,2.37438067793846130e-01,-3.39644938707351685e-01,-2.49643057584762573e-01,-4.30711239576339722e-01,-3.34547787904739380e-01,-2.31561586260795593e-01,-4.37902808189392090e-02,-3.48362386226654053e-01,-3.61759476363658905e-02,1.84482425451278687e-01,4.02481555938720703e-01,-2.72214382886886597e-01,-2.03702762722969055e-01,-3.58675092458724976e-01,-2.42486611008644104e-01,-4.09520030021667480e-01,-2.09236845374107361e-01,-1.10404774546623230e-01,1.83522794395685196e-02,-4.37500000000000000e-01,-1.96724787354469299e-01,-9.92192998528480530e-02,3.99884060025215149e-02,-2.26702243089675903e-02,1.99818819761276245e-01,-2.96377509832382202e-01,-1.82428628206253052e-01,-2.35594376921653748e-01,-1.27582579851150513e-01,-1.19167253375053406e-01,-4.99442890286445618e-02,3.44401560723781586e-02,-1.43658697605133057e-01,-2.13357105851173401e-01,-4.84654307365417480e-02,-1.34857907891273499e-01,-6.50251954793930054e-02,-6.01855060085654259e-03,8.62570405006408691e-02,-9.54628735780715942e-02,3.34149487316608429e-02,1.24915048480033875e-01,2.36805543303489685e-01],"default_left":[true,true,true,false,true,true,true,false,true,true,true,true,true,false,true,false,true,true,true,true,true,true,false,false,true,false,false,false,true,true,true,false,true,true,true,true,true,false,false,false,false,false,false,false,false,false,false,false,false,false,false,false,false,false,false],"id":0,"leaf_child_counts":[0,0,0,0,0,0,0,0,0,0,0,0,0,0,0,0,0,0,0,0,0,0,0,0,0,0,0,0,0,0,0,0,0,0,0,0,0,0,0,0,0,0,0,0,0,0,0,0,0,0,0,0,0,0,0],"left_children":[1,3,5,-1,7,9,11,-1,13,15,17,19,21,-1,23,-1,25,27,29,31,33,35,-1,-1,37,-1,-1,-1,39,41,43,-1,45,47,49,51,53,-1,-1,-1,-1,-1,-1,-1,-1,-1,-1,-1,-1,-1,-1,-1,-1,-1,-1],"loss_changes":[1.73802413940429688e+01,2.10419464111328125e+00,9.25256061553955078e+00,0.00000000000000000e+00,8.93869400024414062e-01,2.26616859436035156e+00,3.70179462432861328e+00,0.00000000000000000e+00,1.85014724731445312e-01,1.14179611206054688e-01,9.72506046295166016e-01,1.19128024578094482e+00,4.23928260803222656e-01,0.00000000000000000e+00,2.64668464660644531e-02,0.00000000000000000e+00,6.18457794189453125e-02,4.14896011352539062e-01,1.55191197991371155e-01,1.03165507316589355e-01,4.84133183956146240e-01,1.47493720054626465e-01,0.00000000000000000e+00,0.00000000000000000e+00,5.07950782775878906e-03,0.00000000000000000e+00,0.00000000000000000e+00,0.00000000000000000e+00,2.15293407440185547e-01,3.58438491821289062e-03,5.70758804678916931e-02,0.00000000000000000e+00,6.92081451416015625e-03,5.82555532455444336e-02,9.84383672475814819e-02,1.95202399045228958e-02,8.67781639099121094e-02,0.00000000000000000e+00,0.00000000000000000e+00,0.00000000000000000e+00,0.00000000000000000e+00,0.00000000000000000e+00,0.00000000000000000e+00,0.00000000000000000e+00,0.00000000000000000e+00,0.00000000000000000e+00,0.00000000000000000e+00,0.00000000000000000e+00,0.00000000000000000e+00,0.00000000000000000e+00,0.00000000000000000e+00,0.00000000000000000e+00,0.00000000000000000e+00,0.00000000000000000e+00,0.00000000000000000e+00],"parents":[2147483647,0,0,1,1,2,2,4,4,5,5,6,6,8,8,9,9,10,10,11,11,12,12,14,14,16,16,17,17,18,18,19,19,20,20,21,21,24,24,28,28,29,29,30,30,32,32,33,33,34,34,35,35,36,36],"right_children":[2,4,6,-1,8,10,12,-1,14,16,18,20,22,-1,24,-1,26,28,30,32,34,36,-1,-1,38,-1,-1,-1,40,42,44,-1,46,48,50,52,54,-1,-1,-1,-1,-1,-1,-1,-1,-1,-1,-1,-1,-1,-1,-1,-1,-1,-1],"split_conditions":[5.11276672363281250e+02,4.44787811279296875e+02,1.34717121124267578e+01,-1.43648505210876465e-01,1.20492610931396484e+01,9.41240882873535156e+00,6.03758789062500000e+02,-1.24470688402652740e-01,4.75759521484375000e+02,6.80522632598876953e+00,6.37787963867187500e+02,6.91411876678466797e+00,6.86103576660156250e+02,-1.01893484592437744e-01,1.53639106750488281e+01,-1.29213377833366394e-01,6.27576782226562500e+02,7.09475088119506836e+00,1.13765697479248047e+01,1.89817321300506592e+00,5.54791381835937500e+02,3.01013374328613281e+01,1.20744474232196808e-01,-8.16643163561820984e-02,7.17182922363281250e+00,-1.07602529227733612e-01,-7.27459862828254700e-02,-1.22856013476848602e-01,5.86124938964843750e+02,3.36248321533203125e+01,7.49665405273437500e+02,-1.31250008940696716e-01,5.73083190917968750e+02,5.25885375976562500e+02,1.53747768402099609e+01,1.95853996276855469e+01,1.47665691375732422e+01,-8.89132544398307800e-02,-5.47285899519920349e-02,-7.06783160567283630e-02,-3.82747761905193329e-02,-3.57501767575740814e-02,-1.49832870811223984e-02,1.03320470079779625e-02,-4.30976115167140961e-02,-6.40071332454681396e-02,-1.45396301522850990e-02,-4.04573753476142883e-02,-1.95075590163469315e-02,-1.80556520354002714e-03,2.58771125227212906e-02,-2.86388639360666275e-02,1.00244851782917976e-02,3.74745167791843414e-02,7.10416659712791443e-02],"split_indices":[1,1,2,0,2,2,1,0,1,2,1,3,1,0,2,0,1,3,2,3,1,0,0,0,3,0,0,0,1,3,1,0,1,1,2,0,2,0,0,0,0,0,0,0,0,0,0,0,0,0,0,0,0,0,0],"sum_hessian":[1.00000000000000000e+03,5.59000000000000000e+02,4.41000000000000000e+02,3.02000000000000000e+02,2.57000000000000000e+02,2.73000000000000000e+02,1.68000000000000000e+02,1.23000000000000000e+02,1.34000000000000000e+02,1.12000000000000000e+02,1.61000000000000000e+02,1.12000000000000000e+02,5.60000000000000000e+01,5.60000000000000000e+01,7.80000000000000000e+01,4.60000000000000000e+01,6.60000000000000000e+01,1.25000000000000000e+02,3.60000000000000000e+01,1.30000000000000000e+01,9.90000000000000000e+01,4.40000000000000000e+01,1.20000000000000000e+01,4.90000000000000000e+01,2.90000000000000000e+01,5.00000000000000000e+01,1.60000000000000000e+01,1.20000000000000000e+01,1.13000000000000000e+02,1.70000000000000000e+01,1.90000000000000000e+01,7.00000000000000000e+00,6.00000000000000000e+00,5.40000000000000000e+01,4.50000000000000000e+01,3.00000000000000000e+00,4.10000000000000000e+01,3.00000000000000000e+00,2.60000000000000000e+01,8.40000000000000000e+01,2.90000000000000000e+01,1.40000000000000000e+01,3.00000000000000000e+00,1.80000000000000000e+01,1.00000000000000000e+00,5.00000000000000000e+00,1.00000000000000000e+00,2.50000000000000000e+01,2.90000000000000000e+01,2.30000000000000000e+01,2.20000000000000000e+01,1.00000000000000000e+00,2.00000000000000000e+00,1.50000000000000000e+01,2.60000000000000000e+01],"tree_param":{"num_deleted":"0","num_feature":"4","num_nodes":"55","size_leaf_vector":"0"}},{"base_weights":[-2.13862538337707520e-01,-2.72725641727447510e-01,-6.64723366498947144e-02,-3.23051452636718750e-01,-2.12698861956596375e-01,-1.80251315236091614e-01,6.29695579409599304e-02,-3.50292474031448364e-01,-2.87691533565521240e-01,-2.88777679204940796e-01,-1.62184149026870728e-01,-2.57931053638458252e-01,-1.19943201541900635e-01,-9.65115148574113846e-03,1.72079339623451233e-01,-3.05404305458068848e-01,-2.38984197378158569e-01,-3.12216222286224365e-01,-2.54298478364944458e-01,-1.98241323232650757e-01,-1.12082302570343018e-01,-3.18212598562240601e-01,-2.28696033358573914e-01,-1.55710056424140930e-01,-5.24852611124515533e-02,-3.06531906127929688e-01,1.36077543720602989e-02,7.52244442701339722e-02,2.14547157287597656e-01,-2.94856727123260498e-01,-1.88262075185775757e-01,-1.40113040804862976e-01,-3.38315069675445557e-02,-2.76095807552337646e-01,-1.41414985060691833e-01,-7.71445631980895996e-02,9.47965960949659348e-03,-3.43512035906314850e-02,4.66746874153614044e-02,9.40152779221534729e-02,-1.22109889984130859e-01,-8.11434388160705566e-02,2.25014761090278625e-01,-1.94060161709785461e-01,-1.12614631652832031e-01,-2.55437701940536499e-01,-1.21136076748371124e-01,-4.46336679160594940e-02,-1.22145249042659998e-03,-1.71074554324150085e-01,-9.52905565500259399e-02,-8.82574096322059631e-02,-3.91355790197849274e-02,-3.33558544516563416e-02,4.35959808528423309e-02,-6.06169328093528748e-02,-1.05546964332461357e-02,4.12783492356538773e-03,7.64621794223785400e-02,3.18234339356422424e-02,1.10703274607658386e-01,1.76269978284835815e-01,2.97696292400360107e-01],"default_left":[true,true,true,true,true,true,true,false,true,true,true,true,true,true,true,false,false,false,false,true,true,false,false,true,true,false,true,true,true,false,true,true,true,false,true,true,true,true,true,true,false,false,true,false,false,false,false,false,false,false,false,false,false,false,false,false,false,false,false,false,false,false,false],"id":1,"leaf_child_counts":[0,0,0,0,0,0,0,0,0,0,0,0,0,0,0,0,0,0,0,0,0,0,0,0,0,0,0,0,0,0,0,0,0,0,0,0,0,0,0,0,0,0,0,0,0,0,0,0,0,0,0,0,0,0,0,0,0,0,0,0,0,0,0],"left_children":[1,3,5,7,9,11,13,-1,15,17,19,21,23,25,27,-1,-1,-1,-1,29,31,-1,-1,33,35,-1,37,39,41,-1,43,45,47,-1,49,51,53,55,57,59,-1,-1,61,-1,-1,-1,-1,-1,-1,-1,-1,-1,-1,-1,-1,-1,-1,-1,-1,-1,-1,-1,-1],"loss_changes":[8.66639328002929688e+00,2.09122848510742188e+00,4.23821926116943359e+00,2.71995544433593750e-01,1.21754455566406250e+00,6.85824871063232422e-01,1.07135081291198730e+00,0.00000000000000000e+00,7.71303176879882812e-02,2.56633758544921875e-02,3.39086532592773438e-01,4.35400009155273438e-02,2.04150319099426270e-01,5.70391178131103516e-01,2.05974459648132324e-01,0.00000000000000000e+00,0.00000000000000000e+00,0.00000000000000000e+00,0.00000000000000000e+00,5.53669929504394531e-02,1.83894634246826172e-01,0.00000000000000000e+00,0.00000000000000000e+00,5.90484142303466797e-02,4.96276915073394775e-02,0.00000000000000000e+00,1.23714216053485870e-01,7.82255828380584717e-02,1.32780075073242188e-01,0.00000000000000000e+00,2.50773429870605469e-02,1.06933474540710449e-01,8.39969888329505920e-03,0.00000000000000000e+00,5.62038421630859375e-02,6.26091659069061279e-03,1.60680841654539108e-02,1.93612501025199890e-02,5.79831153154373169e-02,1.41206085681915283e-02,0.00000000000000000e+00,0.00000000000000000e+00,7.50674009323120117e-02,0.00000000000000000e+00,0.00000000000000000e+00,0.00000000000000000e+00,0.00000000000000000e+00,0.00000000000000000e+00,0.00000000000000000e+00,0.00000000000000000e+00,0.00000000000000000e+00,0.00000000000000000e+00,0.00000000000000000e+00,0.00000000000000000e+00,0.00000000000000000e+00,0.00000000000000000e+00,0.00000000000000000e+00,0.00000000000000000e+00,0.00000000000000000e+00,0.00000000000000000e+00,0.00000000000000000e+00,0.00000000000000000e+00,0.00000000000000000e+00],"parents":[2147483647,0,0,1,1,2,2,3,3,4,4,5,5,6,6,8,8,9,9,10,10,11,11,12,12,13,13,14,14,19,19,20,20,23,23,24,24,26,26,27,27,28,28,30,30,31,31,32,32,34,34,35,35,36,36,37,37,38,38,39,39,42,42],"right_children":[2,4,6,8,10,12,14,-1,16,18,20,22,24,26,28,-1,-1,-1,-1,30,32,-1,-1,34,36,-1,38,40,42,-1,44,46,48,-1,50,52,54,56,58,60,-1,-1,62,-1,-1,-1,-1,-1,-1,-1,-1,-1,-1,-1,-1,-1,-1,-1,-1,-1,-1,-1,-1],"split_conditions":[5.53771972656250000e+02,4.70856689453125000e+02,1.25165939331054688e+01,4.20139770507812500e+02,1.11154975891113281e+01,8.96613883972167969e+00,6.18096496582031250e+02,-1.05087749660015106e-01,1.42964820861816406e+01,9.00519943237304688e+00,1.46066160202026367e+01,5.24276685714721680e+00,6.39443847656250000e+02,2.14467191696166992e+00,1.42163038253784180e+01,-9.16212946176528931e-02,-7.16952607035636902e-02,-9.36648696660995483e-02,-7.62895494699478149e-02,4.84120845794677734e+00,5.24479125976562500e+02,-9.54637825489044189e-02,-6.86088129878044128e-02,4.69829082489013672e+00,1.14946880340576172e+01,-9.19595733284950256e-02,5.74837890625000000e+02,7.33590881347656250e+02,1.88329544067382812e+01,-8.84570181369781494e-02,5.45563354492187500e+02,7.17182922363281250e+00,5.42574829101562500e+02,-8.28287452459335327e-02,1.11268749237060547e+01,5.43873138427734375e+01,6.80756835937500000e+02,1.45208339691162109e+01,1.46274776458740234e+01,6.49577636718750000e+02,-3.66329699754714966e-02,-2.43430323898792267e-02,6.78849975585937500e+02,-5.82180507481098175e-02,-3.37843894958496094e-02,-7.66313150525093079e-02,-3.63408252596855164e-02,-1.33901005610823631e-02,-3.66435764590278268e-04,-5.13223670423030853e-02,-2.85871680825948715e-02,-2.64772232621908188e-02,-1.17406742647290230e-02,-1.00067565217614174e-02,1.30787948146462440e-02,-1.81850809603929520e-02,-3.16640897653996944e-03,1.23835052363574505e-03,2.29386538267135620e-02,9.54703055322170258e-03,3.32109853625297546e-02,5.28809949755668640e-02,8.93088877201080322e-02],"split_indices":[1,1,2,1,2,2,1,0,2,2,2,2,1,3,2,0,0,0,0,3,1,0,0,3,2,0,1,1,0,0,1,3,1,0,2,0,1,2,2,1,0,0,1,0,0,0,0,0,0,0,0,0,0,0,0,0,0,0,0,0,0,0,0],"sum_hessian":[1.00000000000000000e+03,7.14000000000000000e+02,2.86000000000000000e+02,3.86000000000000000e+02,3.28000000000000000e+02,1.52000000000000000e+02,1.34000000000000000e+02,2.13000000000000000e+02,1.73000000000000000e+02,1.29000000000000000e+02,1.99000000000000000e+02,6.50000000000000000e+01,8.70000000000000000e+01,8.10000000000000000e+01,5.30000000000000000e+01,1.23000000000000000e+02,5.00000000000000000e+01,7.20000000000000000e+01,5.70000000000000000e+01,1.14000000000000000e+02,8.50000000000000000e+01,1.80000000000000000e+01,4.70000000000000000e+01,5.60000000000000000e+01,3.10000000000000000e+01,5.00000000000000000e+00,7.60000000000000000e+01,1.70000000000000000e+01,3.60000000000000000e+01,8.00000000000000000e+00,1.06000000000000000e+02,6.20000000000000000e+01,2.30000000000000000e+01,4.00000000000000000e+00,5.20000000000000000e+01,2.20000000000000000e+01,9.00000000000000000e+00,3.10000000000000000e+01,4.50000000000000000e+01,1.60000000000000000e+01,1.00000000000000000e+00,1.00000000000000000e+00,3.50000000000000000e+01,9.70000000000000000e+01,9.00000000000000000e+00,7.00000000000000000e+00,5.50000000000000000e+01,1.70000000000000000e+01,6.00000000000000000e+00,3.00000000000000000e+01,2.20000000000000000e+01,1.60000000000000000e+01,6.00000000000000000e+00,4.00000000000000000e+00,5.00000000000000000e+00,1.40000000000000000e+01,1.70000000000000000e+01,1.90000000000000000e+01,2.60000000000000000e+01,4.00000000000000000e+00,1.20000000000000000e+01,2.30000000000000000e+01,1.20000000000000000e+01],"tree_param":{"num_deleted":"0","num_feature":"4","num_nodes":"63","size_leaf_vector":"0"}},{"base_weights":[-1.50775372982025146e-01,-2.09911152720451355e-01,-7.79004171490669250e-02,-2.42369979619979858e-01,-1.80602490901947021e-01,-1.57667681574821472e-01,-8.68860632181167603e-03,-2.17078626155853271e-01,-1.54198959469795227e-01,-2.05415174365043640e-01,-1.27669826149940491e-01,-6.49225488305091858e-02,8.05405974388122559e-02,-2.34810620546340942e-01,-1.47318348288536072e-01,-2.34076038002967834e-01,-1.84110358357429504e-01,-1.53483837842941284e-01,-6.93142935633659363e-02,-2.09819689393043518e-01,-4.21312712132930756e-02,3.27125638723373413e-02,1.27672627568244934e-01,-1.59182146191596985e-01,-1.06857642531394958e-01,-2.46457457542419434e-01,-1.42673328518867493e-01,-9.73061248660087585e-02,-4.42659966647624969e-02,-2.41874054074287415e-01,-1.31503894925117493e-01,-6.60176575183868408e-02,-3.83633025921881199e-03,3.78253161907196045e-02,-1.03793412446975708e-01,-9.21460688114166260e-02,1.44754499197006226e-01,-1.68363407254219055e-01,-1.34854674339294434e-01,-1.31400495767593384e-01,-7.83950462937355042e-02,-1.47961333394050598e-01,-8.92748087644577026e-02,-1.06360010802745819e-01,-5.06832189857959747e-02,-1.06432996690273285e-01,-3.37765850126743317e-02,-9.04150530695915222e-02,-4.60192523896694183e-02,-3.26321087777614594e-02,2.51070000231266022e-02,8.11151228845119476e-03,7.75333791971206665e-02,-1.38395205140113831e-01,-3.05979549884796143e-02,8.78278389573097229e-02,2.15035468339920044e-01],"default_left":[true,true,true,false,true,true,true,false,true,true,true,true,true,false,true,false,false,true,true,true,true,true,true,true,true,false,true,true,true,false,false,true,true,true,false,true,true,false,false,false,false,false,false,false,false,false,false,false,false,false,false,false,false,false,false,false,false],"id":2,"leaf_child_counts":[0,0,0,0,0,0,0,0,0,0,0,0,0,0,0,0,0,0,0,0,0,0,0,0,0,0,0,0,0,0,0,0,0,0,0,0,0,0,0,0,0,0,0,0,0,0,0,0,0,0,0,0,0,0,0,0,0],"left_children":[1,3,5,-1,7,9,11,-1,13,15,17,19,21,-1,23,-1,-1,25,27,29,31,33,35,37,39,-1,41,43,45,-1,-1,47,49,51,-1,53,55,-1,-1,-1,-1,-1,-1,-1,-1,-1,-1,-1,-1,-1,-1,-1,-1,-1,-1,-1,-1],"loss_changes":[4.29747390747070312e+00,4.81357574462890625e-01,2.48300671577453613e+00,0.00000000000000000e+00,2.49677658081054688e-01,2.73129940032958984e-01,1.21951460838317871e+00,0.00000000000000000e+00,6.19187355041503906e-02,5.14245033264160156e-03,1.86698436737060547e-01,4.83216226100921631e-01,2.07721352577209473e-01,0.00000000000000000e+00,6.12330436706542969e-02,0.00000000000000000e+00,0.00000000000000000e+00,5.52957057952880859e-02,2.51408368349075317e-02,1.83998942375183105e-02,1.18661358952522278e-01,3.74262370169162750e-02,1.89819514751434326e-01,4.99176979064941406e-03,1.76410079002380371e-02,0.00000000000000000e+00,1.02275609970092773e-02,2.62959301471710205e-03,1.20553374290466309e-02,0.00000000000000000e+00,0.00000000000000000e+00,3.48718762397766113e-02,4.33250255882740021e-02,5.48253357410430908e-02,0.00000000000000000e+00,7.15158134698867798e-03,1.57151758670806885e-01,0.00000000000000000e+00,0.00000000000000000e+00,0.00000000000000000e+00,0.00000000000000000e+00,0.00000000000000000e+00,0.00000000000000000e+00,0.00000000000000000e+00,0.00000000000000000e+00,0.00000000000000000e+00,0.00000000000000000e+00,0.00000000000000000e+00,0.00000000000000000e+00,0.00000000000000000e+00,0.00000000000000000e+00,0.00000000000000000e+00,0.00000000000000000e+00,0.00000000000000000e+00,0.00000000000000000e+00,0.00000000000000000e+00,0.00000000000000000e+00],"parents":[2147483647,0,0,1,1,2,2,4,4,5,5,6,6,8,8,9,9,10,10,11,11,12,12,14,14,17,17,18,18,19,19,20,20,21,21,22,22,23,23,24,24,26,26,27,27,28,28,31,31,32,32,33,33,35,35,36,36],"right_children":[2,4,6,-1,8,10,12,-1,14,16,18,20,22,-1,24,-1,-1,26,28,30,32,34,36,38,40,-1,42,44,46,-1,-1,48,50,52,-1,54,56,-1,-1,-1,-1,-1,-1,-1,-1,-1,-1,-1,-1,-1,-1,-1,-1,-1,-1,-1,-1],"split_conditions":[5.08405242919921875e+02,4.32511840820312500e+02,1.18002510070800781e+01,-7.27109983563423157e-02,1.11611928939819336e+01,8.38254070281982422e+00,5.90858947753906250e+02,-6.51235878467559814e-02,6.41550636291503906e+00,5.71127939224243164e+00,6.21682006835937500e+02,6.76023769378662109e+00,1.47665691375732422e+01,-7.04431906342506409e-02,4.92035644531250000e+02,-7.02228173613548279e-02,-5.52331097424030304e-02,4.98257732391357422e+00,1.02247352600097656e+01,3.43216323852539062e+00,1.52646303176879883e+01,7.49665405273437500e+02,5.99195289611816406e+00,1.55485134124755859e+01,1.43189334869384766e+01,-7.39372372627258301e-02,6.04902343750000000e+02,6.88906982421875000e+02,2.85958042144775391e+01,-7.25622177124023438e-02,-3.94511707127094269e-02,5.43441284179687500e+02,5.39498168945312500e+02,6.45322143554687500e+02,-3.11380252242088318e-02,6.05668334960937500e+02,6.42204467773437500e+02,-5.05090244114398956e-02,-4.04564030468463898e-02,-3.94201502203941345e-02,-2.35185157507658005e-02,-4.43884022533893585e-02,-2.67824437469244003e-02,-3.19080054759979248e-02,-1.52049660682678223e-02,-3.19298990070819855e-02,-1.01329758763313293e-02,-2.71245166659355164e-02,-1.38057759031653404e-02,-9.78963263332843781e-03,7.53210019320249557e-03,2.43345368653535843e-03,2.32600141316652298e-02,-4.15185615420341492e-02,-9.17938724160194397e-03,2.63483524322509766e-02,6.45106434822082520e-02],"split_indices":[1,1,2,0,2,2,1,0,3,2,1,3,2,0,1,0,0,3,2,3,2,1,3,2,2,0,1,1,0,0,0,1,1,1,0,1,1,0,0,0,0,0,0,0,0,0,0,0,0,0,0,0,0,0,0,0,0],"sum_hessian":[1.00000000000000000e+03,5.51000000000000000e+02,4.49000000000000000e+02,2.58000000000000000e+02,2.93000000000000000e+02,2.08000000000000000e+02,2.41000000000000000e+02,1.20000000000000000e+02,1.73000000000000000e+02,7.80000000000000000e+01,1.30000000000000000e+02,1.48000000000000000e+02,9.30000000000000000e+01,1.10000000000000000e+01,1.62000000000000000e+02,2.90000000000000000e+01,4.90000000000000000e+01,8.90000000000000000e+01,4.10000000000000000e+01,1.90000000000000000e+01,1.29000000000000000e+02,4.70000000000000000e+01,4.60000000000000000e+01,1.23000000000000000e+02,3.90000000000000000e+01,7.00000000000000000e+00,8.20000000000000000e+01,1.80000000000000000e+01,2.30000000000000000e+01,1.20000000000000000e+01,7.00000000000000000e+00,7.90000000000000000e+01,5.00000000000000000e+01,4.60000000000000000e+01,1.00000000000000000e+00,3.00000000000000000e+00,4.30000000000000000e+01,8.50000000000000000e+01,3.80000000000000000e+01,1.90000000000000000e+01,2.00000000000000000e+01,7.30000000000000000e+01,9.00000000000000000e+00,1.40000000000000000e+01,4.00000000000000000e+00,2.00000000000000000e+00,2.10000000000000000e+01,3.40000000000000000e+01,4.50000000000000000e+01,2.50000000000000000e+01,2.50000000000000000e+01,2.70000000000000000e+01,1.90000000000000000e+01,1.00000000000000000e+00,2.00000000000000000e+00,2.50000000000000000e+01,1.80000000000000000e+01],"tree_param":{"num_deleted":"0","num_feature":"4","num_nodes":"57","size_leaf_vector":"0"}},{"base_weights":[-1.06384322047233582e-01,-1.33667111396789551e-01,-2.68821287900209427e-02,-1.57052874565124512e-01,-1.00527308881282806e-01,-8.94537121057510376e-02,4.64315898716449738e-02,-1.76305904984474182e-01,-1.42100423574447632e-01,-1.28690317273139954e-01,-6.18678629398345947e-02,-1.16881534457206726e-01,-4.91341464221477509e-02,1.12904980778694153e-02,8.85219648480415344e-02,-1.55307859182357788e-01,-1.19295701384544373e-01,-1.55821502208709717e-01,-1.08085282146930695e-01,-1.59787982702255249e-01,-4.71113696694374084e-02,-1.46940216422080994e-01,-9.47051644325256348e-02,-1.23990587890148163e-01,-3.81124317646026611e-02,-1.23106583952903748e-01,1.96444317698478699e-02,-4.49174046516418457e-02,1.00095465779304504e-01,-1.70388549566268921e-01,-1.44264638423919678e-01,-1.70406192541122437e-01,-1.14614836871623993e-01,-1.17167472839355469e-01,-8.82269889116287231e-02,-1.91032409667968750e-01,-1.10789336264133453e-01,-6.79312050342559814e-02,-2.54930332303047180e-02,-1.49077773094177246e-01,-3.92692312598228455e-02,-1.06736347079277039e-01,-5.61438165605068207e-02,-1.50479406118392944e-01,-6.65041208267211914e-02,-5.02350404858589172e-02,-1.01991109549999237e-02,-1.42182558774948120e-01,-3.29393446445465088e-02,1.29907729569822550e-03,4.94015067815780640e-02,-9.62401777505874634e-02,8.01868438720703125e-02,6.13115616142749786e-02,1.39556705951690674e-01,-1.23919166624546051e-01,-9.53717231750488281e-02,-9.20603871345520020e-02,-4.52811643481254578e-02,-7.96872451901435852e-02,-5.55218234658241272e-02,-3.71247492730617523e-02,-1.12891802564263344e-02,-5.15372678637504578e-02,-2.32857465744018555e-03,-9.98188033699989319e-02,1.64079479873180389e-03,-1.30860693752765656e-02,1.36635638773441315e-02,-1.46076530218124390e-02,5.28196282684803009e-02,3.74085716903209686e-02,9.26787704229354858e-02,-6.01255893707275391e-03,1.46147221326828003e-01],"default_left":[true,true,true,true,true,true,true,false,true,true,true,true,true,true,true,true,true,false,true,true,true,true,true,true,true,true,true,true,true,false,false,false,true,false,true,false,false,true,true,false,false,false,false,false,false,true,true,false,false,true,true,false,false,true,true,false,false,false,false,false,false,false,false,false,false,false,false,false,false,false,false,false,false,false,false],"id":3,"leaf_child_counts":[0,0,0,0,0,0,0,0,0,0,0,0,0,0,0,0,0,0,0,0,0,0,0,0,0,0,0,0,0,0,0,0,0,0,0,0,0,0,0,0,0,0,0,0,0,0,0,0,0,0,0,0,0,0,0,0,0,0,0,0,0,0,0,0,0,0,0,0,0,0,0,0,0,0,0],"left_children":[1,3,5,7,9,11,13,-1,15,17,19,21,23,25,27,29,31,-1,33,35,37,39,41,43,45,47,49,51,53,-1,-1,-1,55,-1,57,-1,-1,59,61,-1,-1,-1,-1,-1,-1,63,65,-1,-1,67,69,-1,-1,71,73,-1,-1,-1,-1,-1,-1,-1,-1,-1,-1,-1,-1,-1,-1,-1,-1,-1,-1,-1,-1],"loss_changes":[2.16761684417724609e+00,5.61586380004882812e-01,1.18310368061065674e+00,1.00174903869628906e-01,3.30644607543945312e-01,1.47974252700805664e-01,1.75013661384582520e-01,0.00000000000000000e+00,5.67703247070312500e-02,8.32259654998779297e-02,1.84651494026184082e-01,4.07445430755615234e-02,4.31271046400070190e-02,7.65194892883300781e-02,8.78914594650268555e-02,1.23262405395507812e-03,3.43608856201171875e-03,0.00000000000000000e+00,8.60011577606201172e-03,4.86153364181518555e-03,5.09287714958190918e-02,1.74081325531005859e-03,1.72043442726135254e-02,6.51746988296508789e-04,1.70835331082344055e-02,2.19671428203582764e-03,3.43277789652347565e-02,3.98206785321235657e-02,6.79665803909301758e-02,0.00000000000000000e+00,0.00000000000000000e+00,0.00000000000000000e+00,4.47452068328857422e-03,0.00000000000000000e+00,1.92263722419738770e-03,0.00000000000000000e+00,0.00000000000000000e+00,4.18284535408020020e-03,9.32858884334564209e-03,0.00000000000000000e+00,0.00000000000000000e+00,0.00000000000000000e+00,0.00000000000000000e+00,0.00000000000000000e+00,0.00000000000000000e+00,2.12585180997848511e-03,1.82022918015718460e-02,0.00000000000000000e+00,0.00000000000000000e+00,7.29340082034468651e-03,6.02255761623382568e-03,0.00000000000000000e+00,0.00000000000000000e+00,1.67768150568008423e-02,2.39037573337554932e-02,0.00000000000000000e+00,0.00000000000000000e+00,0.00000000000000000e+00,0.00000000000000000e+00,0.00000000000000000e+00,0.00000000000000000e+00,0.00000000000000000e+00,0.00000000000000000e+00,0.00000000000000000e+00,0.00000000000000000e+00,0.00000000000000000e+00,0.00000000000000000e+00,0.00000000000000000e+00,0.00000000000000000e+00,0.00000000000000000e+00,0.00000000000000000e+00,0.00000000000000000e+00,0.00000000000000000e+00,0.00000000000000000e+00,0.00000000000000000e+00],"parents":[2147483647,0,0,1,1,2,2,3,3,4,4,5,5,6,6,8,8,9,9,10,10,11,11,12,12,13,13,14,14,15,15,16,16,18,18,19,19,20,20,21,21,22,22,23,23,24,24,25,25,26,26,27,27,28,28,32,32,34,34,37,37,38,38,45,45,46,46,49,49,50,50,53,53,54,54],"right_children":[2,4,6,8,10,12,14,-1,16,18,20,22,24,26,28,30,32,-1,34,36,38,40,42,44,46,48,50,52,54,-1,-1,-1,56,-1,58,-1,-1,60,62,-1,-1,-1,-1,-1,-1,64,66,-1,-1,68,70,-1,-1,72,74,-1,-1,-1,-1,-1,-1,-1,-1,-1,-1,-1,-1,-1,-1,-1,-1,-1,-1,-1,-1],"split_conditions":[5.60902099609375000e+02,4.82540344238281250e+02,1.25165939331054688e+01,4.09657440185546875e+02,1.29572925567626953e+01,1.02247352600097656e+01,6.18096496582031250e+02,-5.28917722404003143e-02,1.30043687820434570e+01,9.21446418762207031e+00,6.39031600952148438e+00,7.21611499786376953e+00,1.09238100051879883e+01,4.58167839050292969e+00,7.40712976455688477e+00,9.05429840087890625e+00,4.10122966766357422e+00,-4.67464514076709747e-02,5.32266113281250000e+02,1.43834376335144043e+00,5.16217163085937500e+02,7.13408020019531250e+02,6.54057617187500000e+02,4.44122600555419922e+00,6.58188049316406250e+02,4.08185272216796875e+01,1.54075584411621094e+01,1.86587867736816406e+01,1.53689355850219727e+01,-5.11165671050548553e-02,-4.32793945074081421e-02,-5.11218607425689697e-02,4.54848876953125000e+02,-3.51502448320388794e-02,1.21823406219482422e+01,-5.73097243905067444e-02,-3.32368016242980957e-02,4.96658752441406250e+02,1.56972351074218750e+01,-4.47233319282531738e-02,-1.17807695642113686e-02,-3.20209041237831116e-02,-1.68431457132101059e-02,-4.51438240706920624e-02,-1.99512373656034470e-02,1.23785839080810547e+01,2.60590095520019531e+01,-4.26547676324844360e-02,-9.88180376589298248e-03,1.39364728927612305e+01,8.54754924774169922e+00,-2.88720540702342987e-02,2.40560546517372131e-02,6.62690979003906250e+02,2.60369873046875000e+01,-3.71757522225379944e-02,-2.86115184426307678e-02,-2.76181176304817200e-02,-1.35843502357602119e-02,-2.39061750471591949e-02,-1.66565477848052979e-02,-1.11374249681830406e-02,-3.38675430975854397e-03,-1.54611812904477119e-02,-6.98572432156652212e-04,-2.99456417560577393e-02,4.92238439619541168e-04,-3.92582081258296967e-03,4.09906916320323944e-03,-4.38229599967598915e-03,1.58458892256021500e-02,1.12225720658898354e-02,2.78036314994096756e-02,-1.80376775097101927e-03,4.38441671431064606e-02],"split_indices":[1,1,2,1,2,2,1,0,2,2,3,2,3,3,3,2,3,0,1,3,1,1,1,3,1,0,2,2,2,0,0,0,1,0,2,0,0,1,2,0,0,0,0,0,0,2,0,0,0,2,3,0,0,1,0,0,0,0,0,0,0,0,0,0,0,0,0,0,0,0,0,0,0,0,0],"sum_hessian":[1.00000000000000000e+03,7.44000000000000000e+02,2.56000000000000000e+02,4.34000000000000000e+02,3.10000000000000000e+02,1.38000000000000000e+02,1.18000000000000000e+02,1.85000000000000000e+02,2.49000000000000000e+02,1.78000000000000000e+02,1.32000000000000000e+02,8.10000000000000000e+01,5.70000000000000000e+01,6.50000000000000000e+01,5.30000000000000000e+01,1.54000000000000000e+02,9.50000000000000000e+01,7.40000000000000000e+01,1.04000000000000000e+02,1.60000000000000000e+01,1.16000000000000000e+02,3.20000000000000000e+01,4.90000000000000000e+01,6.00000000000000000e+00,5.10000000000000000e+01,3.00000000000000000e+00,6.20000000000000000e+01,4.00000000000000000e+00,4.90000000000000000e+01,5.90000000000000000e+01,9.50000000000000000e+01,5.00000000000000000e+00,9.00000000000000000e+01,6.80000000000000000e+01,3.60000000000000000e+01,8.00000000000000000e+00,8.00000000000000000e+00,5.80000000000000000e+01,5.80000000000000000e+01,3.10000000000000000e+01,1.00000000000000000e+00,3.60000000000000000e+01,1.30000000000000000e+01,3.00000000000000000e+00,3.00000000000000000e+00,3.50000000000000000e+01,1.60000000000000000e+01,2.00000000000000000e+00,1.00000000000000000e+00,3.90000000000000000e+01,2.30000000000000000e+01,3.00000000000000000e+00,1.00000000000000000e+00,2.60000000000000000e+01,2.30000000000000000e+01,5.70000000000000000e+01,3.30000000000000000e+01,3.20000000000000000e+01,4.00000000000000000e+00,2.70000000000000000e+01,3.10000000000000000e+01,3.10000000000000000e+01,2.70000000000000000e+01,3.40000000000000000e+01,1.00000000000000000e+00,1.00000000000000000e+00,1.50000000000000000e+01,1.80000000000000000e+01,2.10000000000000000e+01,1.00000000000000000e+00,2.20000000000000000e+01,1.60000000000000000e+01,1.00000000000000000e+01,1.00000000000000000e+00,2.20000000000000000e+01],"tree_param":{"num_deleted":"0","num_feature":"4","num_nodes":"75","size_leaf_vector":"0"}},{"base_weights":[-7.51819685101509094e-02,-9.36001315712928772e-02,-1.73442345112562180e-02,-1.10544361174106598e-01,-7.06329196691513062e-02,-6.26207962632179260e-02,3.79685275256633759e-02,-1.24556660652160645e-01,-1.00725606083869934e-01,-8.78159105777740479e-02,-3.84916774928569794e-02,-9.94562581181526184e-02,-4.75448369979858398e-02,1.56465638428926468e-02,8.34179297089576721e-02,-1.15234278142452240e-01,-9.00600925087928772e-02,-1.39122217893600464e-01,-8.14129933714866638e-02,-1.36162027716636658e-01,-3.09004317969083786e-02,-1.24307304620742798e-01,-8.15614163875579834e-02,-1.25971049070358276e-01,-3.90798859298229218e-02,-8.17734226584434509e-02,2.22867522388696671e-02,-5.43081350624561310e-02,9.31167602539062500e-02,-1.30197256803512573e-01,-8.66941213607788086e-02,-1.13598227500915527e-01,-7.06410333514213562e-02,-4.55653816461563110e-02,-1.84090472757816315e-02,-3.24828177690505981e-02,-1.33596733212471008e-01,-5.05706779658794403e-02,-2.07581464201211929e-02,4.36788983643054962e-03,4.80875931680202484e-02,-7.67382979393005371e-03,-7.37883746623992920e-02,5.07122240960597992e-02,1.16952322423458099e-01,-9.45608764886856079e-02,-7.54361599683761597e-02,-7.38620832562446594e-02,-4.38112951815128326e-02,-4.81237918138504028e-02,-1.92094985395669937e-02,-4.76398169994354248e-02,-1.60348005592823029e-02,-5.72738423943519592e-02,-3.10710407793521881e-02,-5.36372512578964233e-02,-1.23944170773029327e-02,-8.39084945619106293e-03,1.58272664994001389e-02,2.25007142871618271e-02,5.24806641042232513e-02,1.31734013557434082e-02,5.58709092438220978e-02,-5.11068105697631836e-03,1.23311005532741547e-01],"default_left":[true,true,true,true,true,true,true,false,true,true,true,true,true,true,true,false,true,false,true,false,true,false,false,true,true,false,true,true,true,false,true,false,true,true,true,false,false,true,true,true,true,false,false,true,true,false,false,false,false,false,false,false,false,false,false,false,false,false,false,false,false,false,false,false,false],"id":4,"leaf_child_counts":[0,0,0,0,0,0,0,0,0,0,0,0,0,0,0,0,0,0,0,0,0,0,0,0,0,0,0,0,0,0,0,0,0,0,0,0,0,0,0,0,0,0,0,0,0,0,0,0,0,0,0,0,0,0,0,0,0,0,0,0,0,0,0,0,0],"left_children":[1,3,5,7,9,11,13,-1,15,17,19,21,23,25,27,-1,29,-1,31,-1,33,-1,-1,35,37,-1,39,41,43,-1,45,-1,47,49,51,-1,-1,53,55,57,59,-1,-1,61,63,-1,-1,-1,-1,-1,-1,-1,-1,-1,-1,-1,-1,-1,-1,-1,-1,-1,-1,-1,-1],"loss_changes":[1.06470727920532227e+00,2.87565708160400391e-01,6.10939919948577881e-01,4.73027229309082031e-02,1.76111578941345215e-01,6.96855783462524414e-02,1.10291972756385803e-01,0.00000000000000000e+00,3.00099849700927734e-02,5.79892396926879883e-02,8.10580700635910034e-02,6.76012039184570312e-03,5.94728738069534302e-02,5.03389984369277954e-02,5.31451702117919922e-02,0.00000000000000000e+00,9.65321063995361328e-03,0.00000000000000000e+00,5.78479766845703125e-02,0.00000000000000000e+00,1.89452245831489563e-02,0.00000000000000000e+00,0.00000000000000000e+00,2.07661092281341553e-03,1.76875293254852295e-02,0.00000000000000000e+00,3.26148048043251038e-02,2.15910188853740692e-03,2.84340977668762207e-02,0.00000000000000000e+00,5.79702854156494141e-03,0.00000000000000000e+00,9.29486751556396484e-03,2.37958878278732300e-03,3.40017117559909821e-03,0.00000000000000000e+00,0.00000000000000000e+00,5.27875125408172607e-03,9.23490710556507111e-03,6.41971360892057419e-03,2.07889080047607422e-03,0.00000000000000000e+00,0.00000000000000000e+00,1.97510421276092529e-03,1.69295668601989746e-02,0.00000000000000000e+00,0.00000000000000000e+00,0.00000000000000000e+00,0.00000000000000000e+00,0.00000000000000000e+00,0.00000000000000000e+00,0.00000000000000000e+00,0.00000000000000000e+00,0.00000000000000000e+00,0.00000000000000000e+00,0.00000000000000000e+00,0.00000000000000000e+00,0.00000000000000000e+00,0.00000000000000000e+00,0.00000000000000000e+00,0.00000000000000000e+00,0.00000000000000000e+00,0.00000000000000000e+00,0.00000000000000000e+00,0.00000000000000000e+00],"parents":[2147483647,0,0,1,1,2,2,3,3,4,4,5,5,6,6,8,8,9,9,10,10,11,11,12,12,13,13,14,14,16,16,18,18,20,20,23,23,24,24,26,26,27,27,28,28,30,30,32,32,33,33,34,34,37,37,38,38,39,39,40,40,43,43,44,44],"right_children":[2,4,6,8,10,12,14,-1,16,18,20,22,24,26,28,-1,30,-1,32,-1,34,-1,-1,36,38,-1,40,42,44,-1,46,-1,48,50,52,-1,-1,54,56,58,60,-1,-1,62,64,-1,-1,-1,-1,-1,-1,-1,-1,-1,-1,-1,-1,-1,-1,-1,-1,-1,-1,-1,-1],"split_conditions":[5.66889953613281250e+02,4.82540344238281250e+02,1.25712575912475586e+01,4.06079254150390625e+02,1.37822809219360352e+01,7.73992252349853516e+00,6.39239501953125000e+02,-3.73670011758804321e-02,1.08264846801757812e+01,5.89415073394775391e+00,3.48045873641967773e+00,4.57555961608886719e+00,7.98436832427978516e+00,7.40712976455688477e+00,5.99195289611816406e+00,-3.45702841877937317e-02,5.11450481414794922e+00,-4.17366661131381989e-02,7.97403526306152344e+00,-4.08486090600490570e-02,5.16217163085937500e+02,-3.72921936213970184e-02,-2.44684256613254547e-02,3.33139305114746094e+01,1.08696136474609375e+01,-2.45320275425910950e-02,1.54642028808593750e+01,4.87623596191406250e+01,1.43393993377685547e+01,-3.90591770410537720e-02,4.52748413085937500e+02,-3.40794697403907776e-02,1.30364379882812500e+01,3.44857749938964844e+01,8.12763309478759766e+00,-9.74484533071517944e-03,-4.00790199637413025e-02,6.54057617187500000e+02,3.50985794067382812e+01,1.40991783142089844e+01,5.84748962402343750e+02,-2.30214907787740231e-03,-2.21365131437778473e-02,3.41329498291015625e+01,2.60496234893798828e+01,-2.83682644367218018e-02,-2.26308479905128479e-02,-2.21586264669895172e-02,-1.31433894857764244e-02,-1.44371381029486656e-02,-5.76284993439912796e-03,-1.42919458448886871e-02,-4.81044035404920578e-03,-1.71821527183055878e-02,-9.32131242007017136e-03,-1.60911753773689270e-02,-3.71832516975700855e-03,-2.51725502312183380e-03,4.74818004295229912e-03,6.75021437928080559e-03,1.57441999763250351e-02,3.95202077925205231e-03,1.67612731456756592e-02,-1.53320434037595987e-03,3.69933024048805237e-02],"split_indices":[1,1,2,1,2,2,1,0,2,3,3,2,3,3,3,0,3,0,2,0,1,0,0,0,2,0,2,0,2,0,1,0,2,3,3,0,0,1,0,2,1,0,0,0,0,0,0,0,0,0,0,0,0,0,0,0,0,0,0,0,0,0,0,0,0],"sum_hessian":[1.00000000000000000e+03,7.58000000000000000e+02,2.42000000000000000e+02,4.34000000000000000e+02,3.24000000000000000e+02,1.33000000000000000e+02,1.09000000000000000e+02,1.74000000000000000e+02,2.60000000000000000e+02,2.10000000000000000e+02,1.14000000000000000e+02,3.70000000000000000e+01,9.60000000000000000e+01,7.40000000000000000e+01,3.50000000000000000e+01,1.06000000000000000e+02,1.54000000000000000e+02,2.10000000000000000e+01,1.89000000000000000e+02,7.00000000000000000e+00,1.07000000000000000e+02,1.30000000000000000e+01,2.40000000000000000e+01,8.00000000000000000e+00,8.80000000000000000e+01,4.00000000000000000e+00,7.00000000000000000e+01,2.00000000000000000e+00,3.30000000000000000e+01,9.00000000000000000e+00,1.45000000000000000e+02,4.50000000000000000e+01,1.44000000000000000e+02,4.80000000000000000e+01,5.90000000000000000e+01,1.00000000000000000e+00,7.00000000000000000e+00,5.30000000000000000e+01,3.50000000000000000e+01,4.20000000000000000e+01,2.80000000000000000e+01,1.00000000000000000e+00,1.00000000000000000e+00,1.30000000000000000e+01,2.00000000000000000e+01,8.10000000000000000e+01,6.40000000000000000e+01,1.27000000000000000e+02,1.70000000000000000e+01,4.30000000000000000e+01,5.00000000000000000e+00,3.00000000000000000e+00,5.60000000000000000e+01,3.80000000000000000e+01,1.50000000000000000e+01,6.00000000000000000e+00,2.90000000000000000e+01,2.00000000000000000e+01,2.20000000000000000e+01,5.00000000000000000e+00,2.30000000000000000e+01,2.00000000000000000e+00,1.10000000000000000e+01,1.00000000000000000e+00,1.90000000000000000e+01],"tree_param":{"num_deleted":"0","num_feature":"4","num_nodes":"65","size_leaf_vector":"0"}},{"base_weights":[-5.31061291694641113e-02,-7.00514018535614014e-02,-2.18013525009155273e-02,-8.36221799254417419e-02,-5.97214847803115845e-02,-5.04158921539783478e-02,1.03706242516636848e-02,-8.76776874065399170e-02,-7.67307654023170471e-02,-7.08612650632858276e-02,-4.19923588633537292e-02,-6.42357915639877319e-02,-2.93863583356142044e-02,-7.94939249753952026e-02,1.97618231177330017e-02,-1.14113494753837585e-01,-6.79164305329322815e-02,-1.03037551045417786e-01,-3.77068594098091125e-02,-9.37070325016975403e-02,-5.72071820497512817e-02,-6.36698529124259949e-02,-2.38308161497116089e-02,-1.02032080292701721e-01,-3.59402894973754883e-02,7.37698283046483994e-03,6.25275373458862305e-02,-8.88481140136718750e-02,-6.32103458046913147e-02,-4.52764928340911865e-02,-2.25705355405807495e-02,-1.10755048692226410e-01,-5.22411800920963287e-02,-9.01034250855445862e-02,-4.57985289394855499e-02,-2.97083873301744461e-02,-7.41861900314688683e-03,-1.50486826896667480e-04,-4.18801754713058472e-02,-5.92040410265326500e-03,1.88969317823648453e-02,4.32607270777225494e-02,9.88798812031745911e-02,-6.79592266678810120e-02,-5.70305511355400085e-02,-4.56753559410572052e-02,-4.68941032886505127e-03,-3.23117449879646301e-02,-1.14830052480101585e-02,-5.58693297207355499e-02,-3.26494276523590088e-02,-3.41526567935943604e-02,-2.31995303183794022e-02,-7.68003985285758972e-02,7.02612916938960552e-04,-1.55524061992764473e-02,2.94574396684765816e-03,-1.24752316623926163e-02,2.42573805153369904e-02,-1.38340191915631294e-02,4.90799807012081146e-02,-4.34407591819763184e-03,1.09636679291725159e-01],"default_left":[true,true,true,true,true,true,true,false,false,true,true,true,true,true,true,false,true,false,true,false,true,true,true,false,true,true,true,false,true,true,true,false,true,false,false,true,true,false,false,true,true,true,true,false,false,false,false,false,false,false,false,false,false,false,false,false,false,false,false,false,false,false,false],"id":5,"leaf_child_counts":[0,0,0,0,0,0,0,0,0,0,0,0,0,0,0,0,0,0,0,0,0,0,0,0,0,0,0,0,0,0,0,0,0,0,0,0,0,0,0,0,0,0,0,0,0,0,0,0,0,0,0,0,0,0,0,0,0,0,0,0,0,0,0],"left_children":[1,3,5,7,9,11,13,-1,-1,15,17,19,21,23,25,-1,27,-1,29,-1,31,33,35,-1,37,39,41,-1,43,45,47,-1,49,-1,-1,51,53,-1,-1,55,57,59,61,-1,-1,-1,-1,-1,-1,-1,-1,-1,-1,-1,-1,-1,-1,-1,-1,-1,-1,-1,-1],"loss_changes":[5.29471397399902344e-01,8.59861373901367188e-02,3.25489819049835205e-01,1.04200839996337891e-03,7.04939365386962891e-02,5.24594485759735107e-02,1.42508223652839661e-01,0.00000000000000000e+00,0.00000000000000000e+00,2.11629867553710938e-02,3.43097150325775146e-02,1.78391635417938232e-02,1.29579082131385803e-02,1.20388418436050415e-02,8.00450146198272705e-02,0.00000000000000000e+00,1.55626535415649414e-02,0.00000000000000000e+00,1.47896409034729004e-02,0.00000000000000000e+00,1.89444720745086670e-02,5.97421079874038696e-04,6.24268129467964172e-03,0.00000000000000000e+00,1.48180965334177017e-03,1.83409191668033600e-02,1.95357650518417358e-02,0.00000000000000000e+00,1.37740373611450195e-03,1.25898420810699463e-03,4.81325015425682068e-03,0.00000000000000000e+00,4.36002016067504883e-03,0.00000000000000000e+00,0.00000000000000000e+00,6.25099986791610718e-04,1.07598053291440010e-02,0.00000000000000000e+00,0.00000000000000000e+00,4.82814386487007141e-03,1.10654253512620926e-02,8.65294411778450012e-03,1.26902312040328979e-02,0.00000000000000000e+00,0.00000000000000000e+00,0.00000000000000000e+00,0.00000000000000000e+00,0.00000000000000000e+00,0.00000000000000000e+00,0.00000000000000000e+00,0.00000000000000000e+00,0.00000000000000000e+00,0.00000000000000000e+00,0.00000000000000000e+00,0.00000000000000000e+00,0.00000000000000000e+00,0.00000000000000000e+00,0.00000000000000000e+00,0.00000000000000000e+00,0.00000000000000000e+00,0.00000000000000000e+00,0.00000000000000000e+00,0.00000000000000000e+00],"parents":[2147483647,0,0,1,1,2,2,3,3,4,4,5,5,6,6,9,9,10,10,11,11,12,12,13,13,14,14,16,16,18,18,20,20,21,21,22,22,24,24,25,25,26,26,28,28,29,29,30,30,32,32,35,35,36,36,39,39,40,40,41,41,42,42],"right_children":[2,4,6,8,10,12,14,-1,-1,16,18,20,22,24,26,-1,28,-1,30,-1,32,34,36,-1,38,40,42,-1,44,46,48,-1,50,-1,-1,52,54,-1,-1,56,58,60,62,-1,-1,-1,-1,-1,-1,-1,-1,-1,-1,-1,-1,-1,-1,-1,-1,-1,-1,-1,-1],"split_conditions":[5.34910400390625000e+02,4.38854187011718750e+02,1.22938051223754883e+01,4.02097534179687500e+02,1.33973340988159180e+01,1.02247352600097656e+01,5.58989238739013672e+00,-2.63033080846071243e-02,-2.30192299932241440e-02,2.87240171432495117e+00,4.09994983673095703e+00,4.59261131286621094e+00,1.00276336669921875e+01,2.67624115943908691e+00,6.47911132812500000e+02,-3.42340506613254547e-02,7.50697422027587891e+00,-3.09112668037414551e-02,5.01500152587890625e+02,-2.81121116131544113e-02,6.10869741439819336e+00,2.02719044685363770e+00,6.48584472656250000e+02,-3.06096244603395462e-02,3.31022949218750000e+01,5.75809082031250000e+02,1.69792518615722656e+01,-2.66544353216886520e-02,4.88279357910156250e+02,2.26828060150146484e+01,1.55767230987548828e+01,-3.32265160977840424e-02,6.62368652343750000e+02,-2.70310286432504654e-02,-1.37395588681101799e-02,5.74717956542968750e+02,2.60590095520019531e+01,-4.51460509793832898e-05,-1.25640528276562691e-02,1.47176055908203125e+01,9.24094581604003906e+00,1.13216972351074219e+01,2.84590988159179688e+01,-2.03877687454223633e-02,-1.71091668307781219e-02,-1.37026077136397362e-02,-1.40682316850870848e-03,-9.69352386891841888e-03,-3.44490166753530502e-03,-1.67608000338077545e-02,-9.79482848197221756e-03,-1.02457972243428230e-02,-6.95985928177833557e-03,-2.30401195585727692e-02,2.10783880902454257e-04,-4.66572213917970657e-03,8.83723201695829630e-04,-3.74256959185004234e-03,7.27721443399786949e-03,-4.15020575746893883e-03,1.47239947691559792e-02,-1.30322284530848265e-03,3.28910052776336670e-02],"split_indices":[1,1,2,1,2,2,3,0,0,3,3,2,3,3,1,0,2,0,1,0,3,3,1,0,0,1,2,0,1,2,2,0,1,0,0,1,0,0,0,2,3,3,0,0,0,0,0,0,0,0,0,0,0,0,0,0,0,0,0,0,0,0,0],"sum_hessian":[1.00000000000000000e+03,6.48000000000000000e+02,3.52000000000000000e+02,2.77000000000000000e+02,3.71000000000000000e+02,1.86000000000000000e+02,1.66000000000000000e+02,1.67000000000000000e+02,1.10000000000000000e+02,2.26000000000000000e+02,1.45000000000000000e+02,1.11000000000000000e+02,7.50000000000000000e+01,1.50000000000000000e+01,1.51000000000000000e+02,1.20000000000000000e+01,2.14000000000000000e+02,8.00000000000000000e+00,1.37000000000000000e+02,1.90000000000000000e+01,9.20000000000000000e+01,9.00000000000000000e+00,6.60000000000000000e+01,9.00000000000000000e+00,6.00000000000000000e+00,1.18000000000000000e+02,3.30000000000000000e+01,3.60000000000000000e+01,1.78000000000000000e+02,9.00000000000000000e+01,4.70000000000000000e+01,6.00000000000000000e+00,8.60000000000000000e+01,2.00000000000000000e+00,7.00000000000000000e+00,4.80000000000000000e+01,1.80000000000000000e+01,1.00000000000000000e+00,5.00000000000000000e+00,5.50000000000000000e+01,6.30000000000000000e+01,2.30000000000000000e+01,1.00000000000000000e+01,9.50000000000000000e+01,8.30000000000000000e+01,8.90000000000000000e+01,1.00000000000000000e+00,2.40000000000000000e+01,2.30000000000000000e+01,7.10000000000000000e+01,1.50000000000000000e+01,2.60000000000000000e+01,2.20000000000000000e+01,1.00000000000000000e+00,1.70000000000000000e+01,2.60000000000000000e+01,2.90000000000000000e+01,9.00000000000000000e+00,5.40000000000000000e+01,2.00000000000000000e+00,2.10000000000000000e+01,1.00000000000000000e+00,9.00000000000000000e+00],"tree_param":{"num_deleted":"0","num_feature":"4","num_nodes":"63","size_leaf_vector":"0"}},{"base_weights":[-3.75507846474647522e-02,-4.57232184708118439e-02,-5.59477508068084717e-03,-5.45236617326736450e-02,-3.38556021451950073e-02,-2.56948247551918030e-02,3.03349718451499939e-02,-5.96789605915546417e-02,-4.83620837330818176e-02,-5.73070310056209564e-02,-2.43368446826934814e-02,-4.80323471128940582e-02,-1.71397160738706589e-02,2.13556382805109024e-02,7.98206403851509094e-02,-9.32156145572662354e-02,-4.61569912731647491e-02,-8.16799700260162354e-02,-5.15552386641502380e-02,-5.75736798346042633e-02,-1.94313619285821915e-02,-6.48371800780296326e-02,-4.09153513610363007e-02,-7.43305310606956482e-02,-1.32235782220959663e-02,-2.94627957046031952e-02,2.71206982433795929e-02,3.40056121349334717e-02,9.27505791187286377e-02,-6.03970997035503387e-02,-4.14186343550682068e-02,-6.87736794352531433e-02,-4.40955832600593567e-02,-7.77652114629745483e-02,-4.42555621266365051e-02,-2.72827129811048508e-02,-7.79040576890110970e-03,-2.10686586797237396e-02,-2.02209292910993099e-03,-6.12191967666149139e-02,9.65930521488189697e-03,1.82036794722080231e-02,3.42999175190925598e-02,-4.52687181532382965e-02,-3.11441123485565186e-02,-9.91216301918029785e-03,-4.54771220684051514e-02,-3.20393815636634827e-02,-1.81069280952215195e-02,-1.37606989592313766e-02,1.21559284161776304e-03,-6.52803406119346619e-02,-1.90027710050344467e-02,-1.06870597228407860e-02,2.10057366639375687e-02,3.32166552543640137e-02,-9.26536321640014648e-03,1.11530348658561707e-02,2.97795347869396210e-02,-3.69247794151306152e-03,3.56894135475158691e-02],"default_left":[true,true,true,true,true,true,true,false,true,true,true,true,true,true,true,false,true,false,true,true,true,false,false,false,true,true,true,false,false,false,true,false,false,false,true,true,true,true,true,false,true,true,true,false,false,false,false,false,false,false,false,false,false,false,false,false,false,false,false,false,false],"id":6,"leaf_child_counts":[0,0,0,0,0,0,0,0,0,0,0,0,0,0,0,0,0,0,0,0,0,0,0,0,0,0,0,0,0,0,0,0,0,0,0,0,0,0,0,0,0,0,0,0,0,0,0,0,0,0,0,0,0,0,0,0,0,0,0,0,0],"left_children":[1,3,5,7,9,11,13,-1,15,17,19,21,23,25,27,-1,29,-1,31,33,35,-1,-1,-1,37,39,41,-1,-1,-1,43,-1,-1,-1,45,47,49,51,53,-1,55,57,59,-1,-1,-1,-1,-1,-1,-1,-1,-1,-1,-1,-1,-1,-1,-1,-1,-1,-1],"loss_changes":[2.61163711547851562e-01,8.13930034637451172e-02,1.48828342556953430e-01,1.15985870361328125e-02,7.49494433403015137e-02,2.44019329547882080e-02,3.11771556735038757e-02,0.00000000000000000e+00,1.67644917964935303e-02,9.52738523483276367e-03,3.88267189264297485e-02,1.65276229381561279e-03,2.07418929785490036e-02,1.95492133498191833e-02,3.36220115423202515e-03,0.00000000000000000e+00,1.13307535648345947e-02,0.00000000000000000e+00,7.49976933002471924e-03,4.89477068185806274e-03,1.94378569722175598e-02,0.00000000000000000e+00,0.00000000000000000e+00,0.00000000000000000e+00,8.04203934967517853e-03,9.28797572851181030e-03,3.08861583471298218e-03,0.00000000000000000e+00,0.00000000000000000e+00,0.00000000000000000e+00,4.80070710182189941e-03,0.00000000000000000e+00,0.00000000000000000e+00,0.00000000000000000e+00,4.30226325988769531e-04,5.00658154487609863e-03,4.74835140630602837e-03,3.69165651500225067e-03,8.00636876374483109e-03,0.00000000000000000e+00,2.09102476947009563e-03,1.95315107703208923e-03,1.76827982068061829e-03,0.00000000000000000e+00,0.00000000000000000e+00,0.00000000000000000e+00,0.00000000000000000e+00,0.00000000000000000e+00,0.00000000000000000e+00,0.00000000000000000e+00,0.00000000000000000e+00,0.00000000000000000e+00,0.00000000000000000e+00,0.00000000000000000e+00,0.00000000000000000e+00,0.00000000000000000e+00,0.00000000000000000e+00,0.00000000000000000e+00,0.00000000000000000e+00,0.00000000000000000e+00,0.00000000000000000e+00],"parents":[2147483647,0,0,1,1,2,2,3,3,4,4,5,5,6,6,8,8,9,9,10,10,11,11,12,12,13,13,14,14,16,16,18,18,19,19,20,20,24,24,25,25,26,26,30,30,34,34,35,35,36,36,37,37,38,38,40,40,41,41,42,42],"right_children":[2,4,6,8,10,12,14,-1,16,18,20,22,24,26,28,-1,30,-1,32,34,36,-1,-1,-1,38,40,42,-1,-1,-1,44,-1,-1,-1,46,48,50,52,54,-1,56,58,60,-1,-1,-1,-1,-1,-1,-1,-1,-1,-1,-1,-1,-1,-1,-1,-1,-1,-1],"split_conditions":[5.81239379882812500e+02,4.87184875488281250e+02,1.36610059738159180e+01,4.28536346435546875e+02,1.00019397735595703e+01,8.04987812042236328e+00,6.95766113281250000e+02,-1.79036892950534821e-02,1.84263098239898682e+00,9.04616832733154297e+00,9.32460594177246094e+00,4.31899118423461914e+00,4.41699123382568359e+00,7.40712976455688477e+00,1.52766094207763672e+01,-2.79646851122379303e-02,9.23717117309570312e+00,-2.45039928704500198e-02,6.18199539184570312e+00,1.37129473686218262e+00,1.43278522491455078e+01,-1.94511543959379196e-02,-1.22746061533689499e-02,-2.22991593182086945e-02,1.13765697479248047e+01,4.03139190673828125e+01,1.57132759094238281e+01,1.02016841992735863e-02,2.78251748532056808e-02,-1.81191302835941315e-02,1.49355869293212891e+01,-2.06321049481630325e-02,-1.32286753505468369e-02,-2.33295634388923645e-02,4.94836853027343750e+02,5.42467712402343750e+02,5.34519775390625000e+02,1.99158039093017578e+01,6.75050292968750000e+02,-1.83657594025135040e-02,4.19303131103515625e+01,6.39239501953125000e+02,2.47392578125000000e+01,-1.35806156322360039e-02,-9.34323389083147049e-03,-2.97364895232021809e-03,-1.36431371793150902e-02,-9.61181521415710449e-03,-5.43207861483097076e-03,-4.12820978090167046e-03,3.64677864126861095e-04,-1.95841025561094284e-02,-5.70083130151033401e-03,-3.20611800998449326e-03,6.30172109231352806e-03,9.96499694883823395e-03,-2.77960905805230141e-03,3.34591069258749485e-03,8.93386080861091614e-03,-1.10774347558617592e-03,1.07068242505192757e-02],"split_indices":[1,1,2,1,2,2,1,0,3,3,3,2,3,3,2,0,2,0,2,3,2,0,0,0,2,0,2,0,0,0,2,0,0,0,1,1,1,0,1,0,0,1,0,0,0,0,0,0,0,0,0,0,0,0,0,0,0,0,0,0,0],"sum_hessian":[1.00000000000000000e+03,7.96000000000000000e+02,2.04000000000000000e+02,4.55000000000000000e+02,3.41000000000000000e+02,1.31000000000000000e+02,7.30000000000000000e+01,2.43000000000000000e+02,2.12000000000000000e+02,9.70000000000000000e+01,2.44000000000000000e+02,3.50000000000000000e+01,9.60000000000000000e+01,6.30000000000000000e+01,1.00000000000000000e+01,8.00000000000000000e+00,2.04000000000000000e+02,1.60000000000000000e+01,8.10000000000000000e+01,3.00000000000000000e+01,2.14000000000000000e+02,8.00000000000000000e+00,2.70000000000000000e+01,5.00000000000000000e+00,9.10000000000000000e+01,6.00000000000000000e+00,5.70000000000000000e+01,3.00000000000000000e+00,7.00000000000000000e+00,4.80000000000000000e+01,1.56000000000000000e+02,2.20000000000000000e+01,5.90000000000000000e+01,1.00000000000000000e+01,2.00000000000000000e+01,1.27000000000000000e+02,8.70000000000000000e+01,5.30000000000000000e+01,3.80000000000000000e+01,3.00000000000000000e+00,3.00000000000000000e+00,2.70000000000000000e+01,3.00000000000000000e+01,1.11000000000000000e+02,4.50000000000000000e+01,1.00000000000000000e+00,1.90000000000000000e+01,8.20000000000000000e+01,4.50000000000000000e+01,5.20000000000000000e+01,3.50000000000000000e+01,1.00000000000000000e+00,5.20000000000000000e+01,2.80000000000000000e+01,1.00000000000000000e+01,1.00000000000000000e+00,2.00000000000000000e+00,1.80000000000000000e+01,9.00000000000000000e+00,1.00000000000000000e+00,2.90000000000000000e+01],"tree_param":{"num_deleted":"0","num_feature":"4","num_nodes":"61","size_leaf_vector":"0"}},{"base_weights":[-2.65168361365795135e-02,-3.22622507810592651e-02,-4.05043736100196838e-03,-3.79136465489864349e-02,-2.32617892324924469e-02,-2.12799459695816040e-02,1.82014890015125275e-02,-6.07660040259361267e-02,-3.69598120450973511e-02,-3.57862859964370728e-02,-1.37729132547974586e-02,-3.97575944662094116e-02,-1.65324360132217407e-02,-6.38803616166114807e-02,2.07928996533155441e-02,-3.69675531983375549e-02,-6.70755952596664429e-02,-4.30484972894191742e-02,-3.27629148960113525e-02,-6.23266920447349548e-02,-3.31218093633651733e-02,-4.37769591808319092e-02,-8.81269201636314392e-03,-4.17944341897964478e-02,2.52643227577209473e-03,-3.05252093821763992e-02,-1.04379570111632347e-02,1.42349116504192352e-02,5.44397644698619843e-02,-4.83926050364971161e-02,-3.02889831364154816e-02,-6.49666115641593933e-02,-1.79637446999549866e-02,-5.30980341136455536e-02,-2.96384673565626144e-02,-5.65565153956413269e-02,-3.14868204295635223e-02,-5.52937649190425873e-02,-7.83732440322637558e-03,-4.50547412037849426e-02,-1.58593654632568359e-02,-4.20993790030479431e-02,-2.68420390784740448e-02,-5.54882958531379700e-02,-8.91464482992887497e-03,-4.43898886442184448e-02,1.56270023435354233e-02,-3.13860177993774414e-03,5.91103024780750275e-02,-5.59648275375366211e-02,-3.99583019316196442e-02,-3.35370376706123352e-02,-2.29572113603353500e-02,-4.32970141991972923e-03,-3.00793033093214035e-02,-3.45333963632583618e-02,-1.44753903150558472e-02,-1.71428937464952469e-02,-5.69017836824059486e-03,-6.19672872126102448e-02,-3.64135764539241791e-02,-1.35584371164441109e-02,6.44460879266262054e-03,5.87995816022157669e-03,2.25171986967325211e-02,3.41090373694896698e-02,7.04724639654159546e-02],"default_left":[true,true,true,true,true,true,true,true,true,true,true,true,true,false,true,false,false,false,true,true,true,true,true,true,false,true,true,true,true,true,true,false,false,false,true,false,true,false,true,true,false,false,false,false,true,false,true,false,true,false,false,false,false,false,false,false,false,false,false,false,false,false,false,false,false,false,false],"id":7,"leaf_child_counts":[0,0,0,0,0,0,0,0,0,0,0,0,0,0,0,0,0,0,0,0,0,0,0,0,0,0,0,0,0,0,0,0,0,0,0,0,0,0,0,0,0,0,0,0,0,0,0,0,0,0,0,0,0,0,0,0,0,0,0,0,0,0,0,0,0,0,0],"left_children":[1,3,5,7,9,11,13,15,17,19,21,23,25,-1,27,-1,-1,-1,29,31,33,35,37,39,-1,41,43,45,47,49,51,-1,-1,-1,53,-1,55,-1,57,59,-1,-1,-1,-1,61,-1,63,-1,65,-1,-1,-1,-1,-1,-1,-1,-1,-1,-1,-1,-1,-1,-1,-1,-1,-1,-1],"loss_changes":[1.29077136516571045e-01,3.96575927734375000e-02,7.89822265505790710e-02,8.39120149612426758e-03,3.63485664129257202e-02,9.51855629682540894e-03,2.04719528555870056e-02,2.23234295845031738e-04,1.06253623962402344e-02,7.34089314937591553e-03,2.61053629219532013e-02,2.08648294210433960e-03,7.69757293164730072e-03,0.00000000000000000e+00,1.86427608132362366e-02,0.00000000000000000e+00,0.00000000000000000e+00,0.00000000000000000e+00,9.47692990303039551e-03,1.21217221021652222e-04,6.98509812355041504e-03,2.14577838778495789e-03,6.54841121286153793e-03,1.14569813013076782e-03,0.00000000000000000e+00,6.35962933301925659e-05,4.10326663404703140e-03,6.81450776755809784e-03,3.95042821764945984e-03,1.26801431179046631e-04,5.11212646961212158e-03,0.00000000000000000e+00,0.00000000000000000e+00,0.00000000000000000e+00,1.06356292963027954e-03,0.00000000000000000e+00,2.77514569461345673e-04,0.00000000000000000e+00,2.93947756290435791e-03,5.20288944244384766e-04,0.00000000000000000e+00,0.00000000000000000e+00,0.00000000000000000e+00,0.00000000000000000e+00,4.79484070092439651e-03,0.00000000000000000e+00,4.83736954629421234e-03,0.00000000000000000e+00,1.28914043307304382e-03,0.00000000000000000e+00,0.00000000000000000e+00,0.00000000000000000e+00,0.00000000000000000e+00,0.00000000000000000e+00,0.00000000000000000e+00,0.00000000000000000e+00,0.00000000000000000e+00,0.00000000000000000e+00,0.00000000000000000e+00,0.00000000000000000e+00,0.00000000000000000e+00,0.00000000000000000e+00,0.00000000000000000e+00,0.00000000000000000e+00,0.00000000000000000e+00,0.00000000000000000e+00,0.00000000000000000e+00],"parents":[2147483647,0,0,1,1,2,2,3,3,4,4,5,5,6,6,7,7,8,8,9,9,10,10,11,11,12,12,14,14,18,18,19,19,20,20,21,21,22,22,23,23,25,25,26,26,27,27,28,28,29,29,30,30,34,34,36,36,38,38,39,39,44,44,46,46,48,48],"right_children":[2,4,6,8,10,12,14,16,18,20,22,24,26,-1,28,-1,-1,-1,30,32,34,36,38,40,-1,42,44,46,48,50,52,-1,-1,-1,54,-1,56,-1,58,60,-1,-1,-1,-1,62,-1,64,-1,66,-1,-1,-1,-1,-1,-1,-1,-1,-1,-1,-1,-1,-1,-1,-1,-1,-1,-1],"split_conditions":[5.81239379882812500e+02,4.93886962890625000e+02,1.28317184448242188e+01,1.84263098239898682e+00,1.16435680389404297e+01,1.19790887832641602e+01,3.23486185073852539e+00,4.15679992675781250e+02,4.14264160156250000e+02,5.37534141540527344e+00,8.92836284637451172e+00,7.06757324218750000e+02,8.04987812042236328e+00,-1.91641096025705338e-02,6.86103576660156250e+02,-1.10902665182948112e-02,-2.01226789504289627e-02,-1.29145495593547821e-02,7.89659595489501953e+00,1.02171936035156250e+01,5.03191757202148438e+00,1.37129473686218262e+00,2.27513771057128906e+01,1.20995693206787109e+01,7.57929694373160601e-04,3.98077106475830078e+00,1.99158039093017578e+01,1.95853996276855469e+01,2.84590988159179688e+01,6.37310218811035156e+00,1.42590951919555664e+01,-1.94899849593639374e-02,-5.38912368938326836e-03,-1.59294102340936661e-02,4.95636291503906250e+02,-1.69669557362794876e-02,1.73037281036376953e+01,-1.65881309658288956e-02,5.04566284179687500e+02,3.97354078292846680e+00,-4.75780991837382317e-03,-1.26298144459724426e-02,-8.05261172354221344e-03,-1.66464895009994507e-02,6.78889038085937500e+02,-1.33169675245881081e-02,6.07577880859375000e+02,-9.41580568905919790e-04,1.55401916503906250e+01,-1.67894493788480759e-02,-1.19874915108084679e-02,-1.00611113011837006e-02,-6.88716350123286247e-03,-1.29891047254204750e-03,-9.02379117906093597e-03,-1.03600192815065384e-02,-4.34261746704578400e-03,-5.14286849647760391e-03,-1.70705362688750029e-03,-1.85901876538991928e-02,-1.09240729361772537e-02,-4.06753132119774818e-03,1.93338270764797926e-03,1.76398747134953737e-03,6.75515970215201378e-03,1.02327112108469009e-02,2.11417395621538162e-02],"split_indices":[1,1,2,3,2,3,3,1,1,3,3,1,2,0,1,0,0,0,2,2,2,3,0,2,0,2,0,0,0,2,2,0,0,0,1,0,2,0,1,3,0,0,0,0,1,0,1,0,2,0,0,0,0,0,0,0,0,0,0,0,0,0,0,0,0,0,0],"sum_hessian":[1.00000000000000000e+03,7.96000000000000000e+02,2.04000000000000000e+02,4.87000000000000000e+02,3.09000000000000000e+02,1.15000000000000000e+02,8.90000000000000000e+01,1.70000000000000000e+01,4.70000000000000000e+02,1.32000000000000000e+02,1.77000000000000000e+02,2.20000000000000000e+01,9.30000000000000000e+01,2.00000000000000000e+00,8.70000000000000000e+01,5.00000000000000000e+00,1.20000000000000000e+01,1.88000000000000000e+02,2.82000000000000000e+02,1.00000000000000000e+01,1.22000000000000000e+02,2.40000000000000000e+01,1.53000000000000000e+02,2.10000000000000000e+01,1.00000000000000000e+00,2.70000000000000000e+01,6.60000000000000000e+01,7.40000000000000000e+01,1.30000000000000000e+01,3.60000000000000000e+01,2.46000000000000000e+02,9.00000000000000000e+00,1.00000000000000000e+00,1.60000000000000000e+01,1.06000000000000000e+02,1.00000000000000000e+01,1.40000000000000000e+01,2.00000000000000000e+00,1.51000000000000000e+02,1.80000000000000000e+01,3.00000000000000000e+00,4.00000000000000000e+00,2.30000000000000000e+01,1.00000000000000000e+00,6.50000000000000000e+01,1.00000000000000000e+00,7.30000000000000000e+01,1.00000000000000000e+00,1.20000000000000000e+01,1.60000000000000000e+01,2.00000000000000000e+01,1.68000000000000000e+02,7.80000000000000000e+01,2.00000000000000000e+00,1.04000000000000000e+02,1.10000000000000000e+01,3.00000000000000000e+00,2.70000000000000000e+01,1.24000000000000000e+02,4.00000000000000000e+00,1.40000000000000000e+01,5.00000000000000000e+01,1.50000000000000000e+01,3.10000000000000000e+01,4.20000000000000000e+01,5.00000000000000000e+00,7.00000000000000000e+00],"tree_param":{"num_deleted":"0","num_feature":"4","num_nodes":"67","size_leaf_vector":"0"}},{"base_weights":[-1.88241209834814072e-02,-2.47819628566503525e-02,-7.81714450567960739e-03,-3.72089855372905731e-02,-2.30192374438047409e-02,-1.61486472934484482e-02,9.34419222176074982e-03,-4.92485165596008301e-02,-3.25756594538688660e-02,-2.79667042195796967e-02,-1.72412507236003876e-02,-5.00935502350330353e-02,-1.41246104612946510e-02,2.46381806209683418e-03,3.08802295476198196e-02,-3.40191535651683807e-02,-5.65664954483509064e-02,-3.38230431079864502e-02,-1.82993300259113312e-02,-3.08628249913454056e-02,-2.50585488975048065e-02,-2.21278090029954910e-02,-8.35747178643941879e-03,-5.27453236281871796e-02,-9.13611613214015961e-03,-2.83886324614286423e-02,-9.91103239357471466e-03,-3.35250794887542725e-02,6.93163229152560234e-03,-3.91411781311035156e-03,3.37072610855102539e-02,-2.77883969247341156e-02,-1.82237233966588974e-02,-4.54626828432083130e-02,-2.05507930368185043e-02,-2.44796965271234512e-02,-7.75402365252375603e-03,-4.14177700877189636e-02,-2.37701758742332458e-02,-1.56397800892591476e-02,-5.60155091807246208e-03,-4.17878553271293640e-02,-2.10519190877676010e-02,4.90437851112801582e-05,1.15190027281641960e-02,2.37863771617412567e-02,4.72020395100116730e-02,-3.31597141921520233e-02,-2.58413888514041901e-02,-5.01348264515399933e-02,-1.98676511645317078e-02,-1.08287893235683441e-02,-4.01386292651295662e-03,-2.40676868706941605e-02,-6.08360767364501953e-03,-1.88957974314689636e-02,-1.04087945073843002e-02,-4.71650585532188416e-02,-4.72305016592144966e-03,-3.77314090728759766e-02,-1.01697389036417007e-02,-6.50073029100894928e-03,4.10133041441440582e-03,4.16254298761487007e-03,1.66249554604291916e-02,-6.43542408943176270e-03,2.60774530470371246e-02,1.26266777515411377e-02,4.96407821774482727e-02],"default_left":[true,true,true,true,true,true,true,true,true,true,true,true,true,true,true,false,false,false,false,false,true,true,true,false,false,true,true,true,true,false,true,true,false,false,true,false,true,false,true,true,true,false,true,true,true,true,true,false,false,false,false,false,false,false,false,false,false,false,false,false,false,false,false,false,false,false,false,false,false],"id":8,"leaf_child_counts":[0,0,0,0,0,0,0,0,0,0,0,0,0,0,0,0,0,0,0,0,0,0,0,0,0,0,0,0,0,0,0,0,0,0,0,0,0,0,0,0,0,0,0,0,0,0,0,0,0,0,0,0,0,0,0,0,0,0,0,0,0,0,0,0,0,0,0,0,0],"left_children":[1,3,5,7,9,11,13,15,17,19,21,23,25,27,29,-1,-1,-1,-1,-1,31,33,35,-1,-1,37,39,41,43,-1,45,47,-1,-1,49,-1,51,-1,53,55,57,-1,59,61,63,65,67,-1,-1,-1,-1,-1,-1,-1,-1,-1,-1,-1,-1,-1,-1,-1,-1,-1,-1,-1,-1,-1,-1],"loss_changes":[6.54496848583221436e-02,1.33601129055023193e-02,5.06227388978004456e-02,2.80255824327468872e-03,1.58406496047973633e-02,1.56444124877452850e-02,1.71123314648866653e-02,3.04616987705230713e-04,4.49545681476593018e-04,1.80387496948242188e-03,1.13624259829521179e-02,9.30044800043106079e-04,1.33018195629119873e-02,1.45428450778126717e-02,2.88614630699157715e-03,0.00000000000000000e+00,0.00000000000000000e+00,0.00000000000000000e+00,0.00000000000000000e+00,0.00000000000000000e+00,2.44155526161193848e-03,5.35841286182403564e-03,7.44161661714315414e-04,0.00000000000000000e+00,0.00000000000000000e+00,2.08439305424690247e-03,4.25746850669384003e-03,1.50915235280990601e-04,2.52527347765862942e-03,0.00000000000000000e+00,2.35811620950698853e-03,3.03946435451507568e-04,0.00000000000000000e+00,0.00000000000000000e+00,2.27797776460647583e-03,0.00000000000000000e+00,1.03754596784710884e-03,0.00000000000000000e+00,6.40600919723510742e-05,1.08073092997074127e-03,3.50162084214389324e-03,0.00000000000000000e+00,7.05336686223745346e-04,9.02533123735338449e-04,1.73376128077507019e-03,1.34490709751844406e-03,2.16405838727951050e-04,0.00000000000000000e+00,0.00000000000000000e+00,0.00000000000000000e+00,0.00000000000000000e+00,0.00000000000000000e+00,0.00000000000000000e+00,0.00000000000000000e+00,0.00000000000000000e+00,0.00000000000000000e+00,0.00000000000000000e+00,0.00000000000000000e+00,0.00000000000000000e+00,0.00000000000000000e+00,0.00000000000000000e+00,0.00000000000000000e+00,0.00000000000000000e+00,0.00000000000000000e+00,0.00000000000000000e+00,0.00000000000000000e+00,0.00000000000000000e+00,0.00000000000000000e+00,0.00000000000000000e+00],"parents":[2147483647,0,0,1,1,2,2,3,3,4,4,5,5,6,6,7,7,8,8,9,9,10,10,11,11,12,12,13,13,14,14,20,20,21,21,22,22,25,25,26,26,27,27,28,28,30,30,31,31,34,34,36,36,38,38,39,39,40,40,42,42,43,43,44,44,45,45,46,46],"right_children":[2,4,6,8,10,12,14,16,18,20,22,24,26,28,30,-1,-1,-1,-1,-1,32,34,36,-1,-1,38,40,42,44,-1,46,48,-1,-1,50,-1,52,-1,54,56,58,-1,60,62,64,66,68,-1,-1,-1,-1,-1,-1,-1,-1,-1,-1,-1,-1,-1,-1,-1,-1,-1,-1,-1,-1,-1,-1],"split_conditions":[5.34910400390625000e+02,9.07909965515136719e+00,1.39065837860107422e+01,5.79023301601409912e-01,4.56837707519531250e+02,2.67624115943908691e+00,6.39239501953125000e+02,4.50420959472656250e+02,1.75854701995849609e+01,4.02097534179687500e+02,1.36513776779174805e+01,6.04519042968750000e+01,7.64943504333496094e+00,7.40712976455688477e+00,2.68020687103271484e+01,-1.02057466283440590e-02,-1.69699490070343018e-02,-1.01469131186604500e-02,-5.48979919403791428e-03,-9.25884768366813660e-03,1.47701454162597656e+01,5.30193233489990234e+00,2.51059589385986328e+01,-1.58235970884561539e-02,-2.74083483964204788e-03,3.48465061187744141e+00,1.07535839080810547e+01,1.89817321300506592e+00,5.69318603515625000e+02,-1.17423536721616983e-03,1.69792518615722656e+01,8.10635566711425781e+00,-5.46711729839444160e-03,-1.36388055980205536e-02,2.16512069702148438e+01,-7.34390923753380775e-03,4.98870849609375000e+02,-1.24253313988447189e-02,7.29580322265625000e+02,6.14907836914062500e+02,1.98511734008789062e+01,-1.25363571569323540e-02,2.28973007202148438e+01,1.49844264984130859e+01,1.55909252166748047e+01,8.40181922912597656e+00,6.54052612304687500e+02,-9.94791463017463684e-03,-7.75241712108254433e-03,-1.50404488667845726e-02,-5.96029544249176979e-03,-3.24863684363663197e-03,-1.20415887795388699e-03,-7.22030643373727798e-03,-1.82508234865963459e-03,-5.66873932257294655e-03,-3.12263844534754753e-03,-1.41495177522301674e-02,-1.41691509634256363e-03,-1.13194230943918228e-02,-3.05092171765863895e-03,-1.95021915715187788e-03,1.23039912432432175e-03,1.24876294285058975e-03,4.98748663812875748e-03,-1.93062727339565754e-03,7.82323628664016724e-03,3.78800346516072750e-03,1.48922353982925415e-02],"split_indices":[1,3,2,3,1,3,1,1,2,1,2,0,2,3,0,0,0,0,0,0,2,2,0,0,0,2,2,3,1,0,2,2,0,0,0,0,1,0,1,1,0,0,0,2,2,3,1,0,0,0,0,0,0,0,0,0,0,0,0,0,0,0,0,0,0,0,0,0,0],"sum_hessian":[1.00000000000000000e+03,6.48000000000000000e+02,3.52000000000000000e+02,7.80000000000000000e+01,5.70000000000000000e+02,2.37000000000000000e+02,1.15000000000000000e+02,1.90000000000000000e+01,5.90000000000000000e+01,3.05000000000000000e+02,2.65000000000000000e+02,1.20000000000000000e+01,2.25000000000000000e+02,8.80000000000000000e+01,2.70000000000000000e+01,8.00000000000000000e+00,1.10000000000000000e+01,5.30000000000000000e+01,6.00000000000000000e+00,1.48000000000000000e+02,1.57000000000000000e+02,1.70000000000000000e+02,9.50000000000000000e+01,1.10000000000000000e+01,1.00000000000000000e+00,5.00000000000000000e+01,1.75000000000000000e+02,9.00000000000000000e+00,7.90000000000000000e+01,2.00000000000000000e+00,2.50000000000000000e+01,1.10000000000000000e+02,4.70000000000000000e+01,9.00000000000000000e+00,1.61000000000000000e+02,2.00000000000000000e+00,9.30000000000000000e+01,1.10000000000000000e+01,3.90000000000000000e+01,7.40000000000000000e+01,1.01000000000000000e+02,4.00000000000000000e+00,5.00000000000000000e+00,3.20000000000000000e+01,4.70000000000000000e+01,1.60000000000000000e+01,9.00000000000000000e+00,2.50000000000000000e+01,8.50000000000000000e+01,2.00000000000000000e+00,1.59000000000000000e+02,5.00000000000000000e+01,4.30000000000000000e+01,3.80000000000000000e+01,1.00000000000000000e+00,4.40000000000000000e+01,3.00000000000000000e+01,1.00000000000000000e+00,1.00000000000000000e+02,1.00000000000000000e+00,4.00000000000000000e+00,1.20000000000000000e+01,2.00000000000000000e+01,2.00000000000000000e+01,2.70000000000000000e+01,1.00000000000000000e+00,1.50000000000000000e+01,1.00000000000000000e+00,8.00000000000000000e+00],"tree_param":{"num_deleted":"0","num_feature":"4","num_nodes":"69","size_leaf_vector":"0"}},{"base_weights":[-1.33607601746916771e-02,-1.57016664743423462e-02,9.10653732717037201e-04,-3.86555679142475128e-02,-1.48827191442251205e-02,-8.98505374789237976e-03,1.49840228259563446e-02,-2.49473806470632553e-02,-4.26897667348384857e-02,-2.00805850327014923e-02,-1.13034024834632874e-02,-1.97765007615089417e-02,-5.74228772893548012e-03,-1.83843299746513367e-02,1.70999038964509964e-02,-4.36928868293762207e-02,-1.13136824220418930e-02,-2.17030160129070282e-02,-1.84638984501361847e-02,-1.49095049127936363e-02,-2.23394110798835754e-03,-2.49818954616785049e-02,-9.49634611606597900e-03,-4.00903001427650452e-02,-4.59708319976925850e-03,-3.20716947317123413e-02,-3.13131022267043591e-03,8.80234781652688980e-03,2.39977091550827026e-02,-1.97423249483108521e-02,-1.25439260154962540e-02,-2.58585102856159210e-02,-1.30236204713582993e-02,-4.79487096890807152e-03,7.09051266312599182e-03,-1.19126187637448311e-02,3.70877981185913086e-03,-1.05386832728981972e-02,1.13021978177130222e-03,-1.36615233495831490e-02,1.11459186300635338e-02,1.62246320396661758e-02,3.79213988780975342e-02,-1.81701667606830597e-02,-2.44322437793016434e-02,-6.30033155903220177e-03,-1.34031549096107483e-02,-3.48185002803802490e-02,-2.18769740313291550e-02,-2.25360803306102753e-02,-1.20150558650493622e-02,-1.30732255056500435e-02,-3.67073598317801952e-03,1.93305430002510548e-03,1.02461157366633415e-02,2.67639756202697754e-04,-1.39872683212161064e-02,5.49497723113745451e-04,-1.26124024391174316e-02,-4.14631515741348267e-03,1.25399120151996613e-02,-1.72042846679687500e-03,-1.87718570232391357e-02,1.44004942849278450e-02,-1.56032049562782049e-03,5.58408256620168686e-03,2.01085805892944336e-02],"default_left":[true,true,true,true,true,true,true,false,true,true,true,true,true,true,true,false,false,false,true,true,true,false,true,false,true,false,false,true,true,true,true,true,true,true,true,true,false,true,true,true,true,true,false,false,false,false,false,false,false,false,false,false,false,false,false,false,false,false,false,false,false,false,false,false,false,false,false],"id":9,"leaf_child_counts":[0,0,0,0,0,0,0,0,0,0,0,0,0,0,0,0,0,0,0,0,0,0,0,0,0,0,0,0,0,0,0,0,0,0,0,0,0,0,0,0,0,0,0,0,0,0,0,0,0,0,0,0,0,0,0,0,0,0,0,0,0,0,0,0,0,0,0],"left_children":[1,3,5,7,9,11,13,-1,15,17,19,21,23,25,27,-1,-1,-1,29,31,33,-1,35,-1,37,-1,-1,39,41,43,45,47,49,51,53,55,-1,57,59,61,63,65,-1,-1,-1,-1,-1,-1,-1,-1,-1,-1,-1,-1,-1,-1,-1,-1,-1,-1,-1,-1,-1,-1,-1,-1,-1],"loss_changes":[3.34557592868804932e-02,1.55910253524780273e-02,1.99103970080614090e-02,5.38747757673263550e-04,1.52522176504135132e-02,2.82594515010714531e-03,4.47997637093067169e-03,0.00000000000000000e+00,1.66624784469604492e-04,4.85837459564208984e-04,1.61558687686920166e-02,7.79496505856513977e-04,2.41184514015913010e-03,7.34668225049972534e-04,2.99391895532608032e-03,0.00000000000000000e+00,0.00000000000000000e+00,0.00000000000000000e+00,1.08436867594718933e-03,6.97281956672668457e-03,3.42485448345541954e-03,0.00000000000000000e+00,2.99438717775046825e-04,0.00000000000000000e+00,2.22381856292486191e-03,0.00000000000000000e+00,0.00000000000000000e+00,1.57370348460972309e-03,2.63163633644580841e-03,6.10440969467163086e-04,9.79546457529067993e-05,1.05767697095870972e-03,2.64578685164451599e-03,9.94282308965921402e-04,4.84715332277119160e-04,1.80631992407143116e-04,0.00000000000000000e+00,7.42731383070349693e-04,2.09891819395124912e-03,1.50773208588361740e-04,1.05630489997565746e-03,7.55586195737123489e-04,0.00000000000000000e+00,0.00000000000000000e+00,0.00000000000000000e+00,0.00000000000000000e+00,0.00000000000000000e+00,0.00000000000000000e+00,0.00000000000000000e+00,0.00000000000000000e+00,0.00000000000000000e+00,0.00000000000000000e+00,0.00000000000000000e+00,0.00000000000000000e+00,0.00000000000000000e+00,0.00000000000000000e+00,0.00000000000000000e+00,0.00000000000000000e+00,0.00000000000000000e+00,0.00000000000000000e+00,0.00000000000000000e+00,0.00000000000000000e+00,0.00000000000000000e+00,0.00000000000000000e+00,0.00000000000000000e+00,0.00000000000000000e+00,0.00000000000000000e+00],"parents":[2147483647,0,0,1,1,2,2,3,3,4,4,5,5,6,6,8,8,9,9,10,10,11,11,12,12,13,13,14,14,18,18,19,19,20,20,22,22,24,24,27,27,28,28,29,29,30,30,31,31,32,32,33,33,34,34,35,35,37,37,38,38,39,39,40,40,41,41],"right_children":[2,4,6,8,10,12,14,-1,16,18,20,22,24,26,28,-1,-1,-1,30,32,34,-1,36,-1,38,-1,-1,40,42,44,46,48,50,52,54,56,-1,58,60,62,64,66,-1,-1,-1,-1,-1,-1,-1,-1,-1,-1,-1,-1,-1,-1,-1,-1,-1,-1,-1,-1,-1,-1,-1,-1,-1],"split_conditions":[6.07386962890625000e+02,4.66034203767776489e-01,1.27233114242553711e+01,4.50420959472656250e+02,4.56837707519531250e+02,1.22451686859130859e+01,2.64827003479003906e+01,-7.48421438038349152e-03,1.75171890258789062e+01,4.01861419677734375e+02,1.42655048370361328e+01,6.51942382812500000e+02,1.99158039093017578e+01,1.88329544067382812e+01,1.50450716018676758e+01,-1.31078669801354408e-02,-3.39410477317869663e-03,-6.51090499013662338e-03,1.59842662811279297e+01,6.78070783615112305e+00,5.61143188476562500e+02,-7.49456882476806641e-03,7.06757324218750000e+02,-1.20270904153585434e-02,1.01200332641601562e+01,-9.62150841951370239e-03,-9.39393125008791685e-04,8.34903144836425781e+00,6.79417358398437500e+02,4.44787811279296875e+02,1.62001724243164062e+01,3.78912639617919922e+00,7.98436832427978516e+00,1.04836692810058594e+01,1.73858127593994141e+01,6.56255737304687500e+02,1.11263396684080362e-03,6.22262329101562500e+02,6.83322021484375000e+02,5.23587036132812500e+01,1.47085170745849609e+01,4.05884628295898438e+01,1.13764200359582901e-02,-5.45105012133717537e-03,-7.32967350631952286e-03,-1.89009949099272490e-03,-4.02094656601548195e-03,-1.04455500841140747e-02,-6.56309258192777634e-03,-6.76082447171211243e-03,-3.60451685264706612e-03,-3.92196793109178543e-03,-1.10122084151953459e-03,5.79916290007531643e-04,3.07383481413125992e-03,8.02919312263838947e-05,-4.19618049636483192e-03,1.64849319844506681e-04,-3.78372077830135822e-03,-1.24389457050710917e-03,3.76197369769215584e-03,-5.16128551680594683e-04,-5.63155720010399818e-03,4.32014837861061096e-03,-4.68096171971410513e-04,1.67522486299276352e-03,6.03257445618510246e-03],"split_indices":[1,3,2,1,1,3,0,0,2,1,2,1,0,0,2,0,0,0,2,2,1,0,1,0,2,0,0,3,1,1,2,2,3,3,3,1,0,1,1,0,2,0,0,0,0,0,0,0,0,0,0,0,0,0,0,0,0,0,0,0,0,0,0,0,0,0,0],"sum_hessian":[1.00000000000000000e+03,8.59000000000000000e+02,1.41000000000000000e+02,2.80000000000000000e+01,8.31000000000000000e+02,8.30000000000000000e+01,5.80000000000000000e+01,8.00000000000000000e+00,2.00000000000000000e+01,3.37000000000000000e+02,4.94000000000000000e+02,1.80000000000000000e+01,6.50000000000000000e+01,3.00000000000000000e+00,5.50000000000000000e+01,1.90000000000000000e+01,1.00000000000000000e+00,1.62000000000000000e+02,1.75000000000000000e+02,3.53000000000000000e+02,1.41000000000000000e+02,1.10000000000000000e+01,7.00000000000000000e+00,1.00000000000000000e+00,6.40000000000000000e+01,1.00000000000000000e+00,2.00000000000000000e+00,2.60000000000000000e+01,2.90000000000000000e+01,1.42000000000000000e+02,3.30000000000000000e+01,5.00000000000000000e+01,3.03000000000000000e+02,1.11000000000000000e+02,3.00000000000000000e+01,6.00000000000000000e+00,1.00000000000000000e+00,3.10000000000000000e+01,3.30000000000000000e+01,2.00000000000000000e+00,2.40000000000000000e+01,2.00000000000000000e+01,9.00000000000000000e+00,1.10000000000000000e+02,3.20000000000000000e+01,5.00000000000000000e+00,2.80000000000000000e+01,1.30000000000000000e+01,3.70000000000000000e+01,2.70000000000000000e+01,2.76000000000000000e+02,1.20000000000000000e+01,9.90000000000000000e+01,1.20000000000000000e+01,1.80000000000000000e+01,1.00000000000000000e+00,5.00000000000000000e+00,5.00000000000000000e+00,2.60000000000000000e+01,2.30000000000000000e+01,1.00000000000000000e+01,1.00000000000000000e+00,1.00000000000000000e+00,1.90000000000000000e+01,5.00000000000000000e+00,6.00000000000000000e+00,1.40000000000000000e+01],"tree_param":{"num_deleted":"0","num_feature":"4","num_nodes":"67","size_leaf_vector":"0"}},{"base_weights":[-9.44776553660631180e-03,-1.26322926953434944e-02,-3.76707338728010654e-03,-2.11163051426410675e-02,-1.17999771609902382e-02,-9.48966573923826218e-03,3.64543241448700428e-03,-1.39668034389615059e-02,-2.33913231641054153e-02,-1.57986897975206375e-02,-1.02869039401412010e-02,-3.83928678929805756e-02,-8.57052579522132874e-03,-1.40113085508346558e-02,6.45421259105205536e-03,-1.45834349095821381e-02,-2.35866475850343704e-03,-2.60705221444368362e-02,-1.24787557870149612e-02,-2.49143522232770920e-02,-1.46045293658971786e-02,-1.45793175324797630e-02,-8.01289081573486328e-03,-2.49721482396125793e-02,-7.66217429190874100e-03,-1.60493869334459305e-02,1.43941640853881836e-02,4.38541732728481293e-03,2.29880493134260178e-02,-1.82577893137931824e-02,-2.87918634712696075e-02,-1.85434632003307343e-02,-7.23052956163883209e-03,-1.15520041435956955e-02,-2.69525703042745590e-02,-1.54805788770318031e-02,-1.27206649631261826e-02,-1.51478666812181473e-02,-1.19632026180624962e-02,-2.83321905881166458e-02,-7.39264674484729767e-03,-9.89273004233837128e-03,-3.78430308774113655e-03,-1.80828776210546494e-02,-5.92563766986131668e-03,2.41092941723763943e-03,9.48302075266838074e-03,-1.61102414131164551e-03,2.48601995408535004e-02,-2.65113753266632557e-03,-8.53205937892198563e-03,-1.29309762269258499e-02,-5.04536414518952370e-03,-1.01361349225044250e-02,-1.53031321242451668e-02,-9.35800559818744659e-03,-3.78451012074947357e-02,-8.89250822365283966e-03,-4.04935423284769058e-03,-1.33636938408017159e-02,-7.99020193517208099e-03,-2.32113804668188095e-02,-2.27803899906575680e-03,-1.18692694231867790e-02,-2.74962801486253738e-02,-1.08763677999377251e-02,1.00030505564063787e-03,2.76714470237493515e-03,-1.46461129188537598e-02,1.03502171114087105e-02,-2.92807817459106445e-03,1.55810117721557617e-02,2.98719629645347595e-02],"default_left":[true,true,true,true,true,true,true,true,true,true,true,false,true,true,true,false,false,true,true,true,true,true,true,false,true,true,false,true,true,false,false,false,true,false,false,false,true,false,true,true,true,true,true,true,true,true,true,false,true,false,false,false,false,false,false,false,false,false,false,false,false,false,false,false,false,false,false,false,false,false,false,false,false],"id":10,"leaf_child_counts":[0,0,0,0,0,0,0,0,0,0,0,0,0,0,0,0,0,0,0,0,0,0,0,0,0,0,0,0,0,0,0,0,0,0,0,0,0,0,0,0,0,0,0,0,0,0,0,0,0,0,0,0,0,0,0,0,0,0,0,0,0,0,0,0,0,0,0,0,0,0,0,0,0],"left_children":[1,3,5,7,9,11,13,15,17,19,21,-1,23,25,27,-1,-1,29,31,33,35,37,39,-1,41,43,-1,45,47,-1,-1,-1,49,-1,-1,-1,51,-1,53,55,57,59,61,63,65,67,69,-1,71,-1,-1,-1,-1,-1,-1,-1,-1,-1,-1,-1,-1,-1,-1,-1,-1,-1,-1,-1,-1,-1,-1,-1,-1],"loss_changes":[1.80608183145523071e-02,4.27716970443725586e-03,1.53477620333433151e-02,5.84151595830917358e-04,3.38298827409744263e-03,5.09043410420417786e-03,7.92626757174730301e-03,8.01298301666975021e-05,8.73384997248649597e-04,1.36694312095642090e-03,4.06088680028915405e-03,0.00000000000000000e+00,2.77344789355993271e-03,1.50465453043580055e-03,4.58528893068432808e-03,0.00000000000000000e+00,0.00000000000000000e+00,1.54681503772735596e-04,1.84210482984781265e-04,1.51644460856914520e-04,3.90782952308654785e-05,3.74298542737960815e-05,3.34457866847515106e-03,0.00000000000000000e+00,1.60602666437625885e-03,3.25164757668972015e-04,0.00000000000000000e+00,1.21515151113271713e-03,7.30847939848899841e-04,0.00000000000000000e+00,0.00000000000000000e+00,0.00000000000000000e+00,1.91018334589898586e-05,0.00000000000000000e+00,0.00000000000000000e+00,0.00000000000000000e+00,1.70832499861717224e-05,0.00000000000000000e+00,3.40561382472515106e-05,1.08984299004077911e-03,1.34297180920839310e-03,6.85653649270534515e-04,2.02474743127822876e-03,6.67990185320377350e-04,1.82322037289850414e-04,5.87365939281880856e-04,3.96243529394268990e-04,0.00000000000000000e+00,1.85634940862655640e-04,0.00000000000000000e+00,0.00000000000000000e+00,0.00000000000000000e+00,0.00000000000000000e+00,0.00000000000000000e+00,0.00000000000000000e+00,0.00000000000000000e+00,0.00000000000000000e+00,0.00000000000000000e+00,0.00000000000000000e+00,0.00000000000000000e+00,0.00000000000000000e+00,0.00000000000000000e+00,0.00000000000000000e+00,0.00000000000000000e+00,0.00000000000000000e+00,0.00000000000000000e+00,0.00000000000000000e+00,0.00000000000000000e+00,0.00000000000000000e+00,0.00000000000000000e+00,0.00000000000000000e+00,0.00000000000000000e+00,0.00000000000000000e+00],"parents":[2147483647,0,0,1,1,2,2,3,3,4,4,5,5,6,6,7,7,8,8,9,9,10,10,12,12,13,13,14,14,17,17,18,18,19,19,20,20,21,21,22,22,24,24,25,25,27,27,28,28,32,32,36,36,38,38,39,39,40,40,41,41,42,42,43,43,44,44,45,45,46,46,48,48],"right_children":[2,4,6,8,10,12,14,16,18,20,22,-1,24,26,28,-1,-1,30,32,34,36,38,40,-1,42,44,-1,46,48,-1,-1,-1,50,-1,-1,-1,52,-1,54,56,58,60,62,64,66,68,70,-1,72,-1,-1,-1,-1,-1,-1,-1,-1,-1,-1,-1,-1,-1,-1,-1,-1,-1,-1,-1,-1,-1,-1,-1,-1],"split_conditions":[5.32072875976562500e+02,6.43483114242553711e+00,1.27503948211669922e+01,4.17609863281250000e+02,9.67230796813964844e+00,1.09508562088012695e+00,8.49268913269042969e+00,1.87565231323242188e+01,5.15318481445312500e+02,5.24665737152099609e+00,4.23707824707031250e+02,-1.15178609266877174e-02,2.85541486740112305e+00,1.96791191101074219e+01,6.81625732421875000e+02,-4.37503075227141380e-03,-7.07599450834095478e-04,3.92060165405273438e+01,9.35198402404785156e+00,3.94091247558593750e+02,4.74316955566406250e+02,4.04541503906250000e+02,2.41787395477294922e+01,-7.49164493754506111e-03,1.07179670333862305e+01,7.40712976455688477e+00,4.31824941188097000e-03,6.13744140625000000e+02,2.84590988159179688e+01,-5.47733716666698456e-03,-8.63755960017442703e-03,-5.56303933262825012e-03,1.31658134460449219e+01,-3.46560147590935230e-03,-8.08577146381139755e-03,-4.64417366310954094e-03,9.50217437744140625e+00,-4.54436009749770164e-03,4.19961120605468750e+02,4.74139984130859375e+02,1.50056180953979492e+01,1.82590465545654297e+01,3.14294967651367188e+01,5.94798217773437500e+02,6.09900085449218750e+02,4.04214019775390625e+01,6.77184204101562500e+02,-4.83307259855791926e-04,1.55401916503906250e+01,-7.95341271441429853e-04,-2.55961786024272442e-03,-3.87929310090839863e-03,-1.51360931340605021e-03,-3.04084061644971371e-03,-4.59093973040580750e-03,-2.80740181915462017e-03,-1.13535309210419655e-02,-2.66775256022810936e-03,-1.21480633970350027e-03,-4.00910852476954460e-03,-2.39706062711775303e-03,-6.96341460570693016e-03,-6.83411723002791405e-04,-3.56078101322054863e-03,-8.24888423085212708e-03,-3.26291052624583244e-03,3.00091516692191362e-04,8.30143457278609276e-04,-4.39383415505290031e-03,3.10506531968712807e-03,-8.78423510584980249e-04,4.67430381104350090e-03,8.96158907562494278e-03],"split_indices":[1,3,2,1,2,3,3,2,1,2,1,0,2,2,1,0,0,0,2,1,1,1,0,0,2,3,0,1,0,0,0,0,2,0,0,0,2,0,1,1,2,3,0,1,1,3,1,0,2,0,0,0,0,0,0,0,0,0,0,0,0,0,0,0,0,0,0,0,0,0,0,0,0],"sum_hessian":[1.00000000000000000e+03,6.40000000000000000e+02,3.60000000000000000e+02,5.50000000000000000e+01,5.85000000000000000e+02,2.03000000000000000e+02,1.57000000000000000e+02,1.50000000000000000e+01,4.00000000000000000e+01,1.58000000000000000e+02,4.27000000000000000e+02,5.00000000000000000e+00,1.98000000000000000e+02,2.10000000000000000e+01,1.36000000000000000e+02,1.40000000000000000e+01,1.00000000000000000e+00,3.10000000000000000e+01,9.00000000000000000e+00,1.60000000000000000e+01,1.42000000000000000e+02,1.46000000000000000e+02,2.81000000000000000e+02,9.00000000000000000e+00,1.89000000000000000e+02,2.00000000000000000e+01,1.00000000000000000e+00,1.22000000000000000e+02,1.40000000000000000e+01,1.00000000000000000e+01,2.10000000000000000e+01,3.00000000000000000e+00,6.00000000000000000e+00,3.00000000000000000e+00,1.30000000000000000e+01,9.20000000000000000e+01,5.00000000000000000e+01,1.16000000000000000e+02,3.00000000000000000e+01,7.00000000000000000e+00,2.74000000000000000e+02,1.19000000000000000e+02,7.00000000000000000e+01,1.60000000000000000e+01,4.00000000000000000e+00,8.90000000000000000e+01,3.30000000000000000e+01,1.00000000000000000e+00,1.30000000000000000e+01,2.00000000000000000e+00,4.00000000000000000e+00,4.80000000000000000e+01,2.00000000000000000e+00,2.20000000000000000e+01,8.00000000000000000e+00,3.00000000000000000e+00,4.00000000000000000e+00,1.88000000000000000e+02,8.60000000000000000e+01,4.00000000000000000e+01,7.90000000000000000e+01,4.00000000000000000e+00,6.60000000000000000e+01,1.10000000000000000e+01,5.00000000000000000e+00,2.00000000000000000e+00,2.00000000000000000e+00,8.80000000000000000e+01,1.00000000000000000e+00,3.10000000000000000e+01,2.00000000000000000e+00,6.00000000000000000e+00,7.00000000000000000e+00],"tree_param":{"num_deleted":"0","num_feature":"4","num_nodes":"73","size_leaf_vector":"0"}},{"base_weights":[-6.72494852915406227e-03,-7.96884391456842422e-03,9.18446399737149477e-04,-1.60554572939872742e-02,-7.17679318040609360e-03,-4.04252344742417336e-03,7.88187142461538315e-03,-2.18636766076087952e-02,-1.25979119911789894e-02,-9.19519178569316864e-03,-4.46030637249350548e-03,-1.86404921114444733e-02,-2.45270435698330402e-03,-1.41024738550186157e-02,9.31143388152122498e-03,-1.82249881327152252e-02,-3.82298901677131653e-02,-1.34553238749504089e-02,-7.82273150980472565e-03,-1.49156535044312477e-02,-8.73636081814765930e-03,-8.42176191508769989e-03,-3.28796711983159184e-04,-4.02111420407891273e-03,-3.22545915842056274e-02,-4.88396454602479935e-03,4.14745137095451355e-03,-2.31364965438842773e-02,-3.37896752171218395e-03,4.10182727500796318e-03,1.43745467066764832e-02,-2.05352269113063812e-02,-1.10376030206680298e-02,-1.06892436742782593e-02,-1.51553312316536903e-02,-9.19385440647602081e-03,-3.46758356317877769e-03,-1.03251272812485695e-02,-1.79124437272548676e-02,-1.04990424588322639e-02,-7.49075878411531448e-03,-1.71180851757526398e-02,-7.72127974778413773e-03,-2.76359561830759048e-02,1.72729356563650072e-04,4.07755374908447266e-04,-5.23027032613754272e-03,-1.08762513846158981e-02,-2.62757693417370319e-03,-4.00125421583652496e-03,9.46982763707637787e-03,2.18809545040130615e-02,2.68539576791226864e-03,1.07353748753666878e-02,2.37584374845027924e-02,-1.21462736278772354e-02,-2.51928679645061493e-02,-1.80088803172111511e-02,-7.46900867670774460e-03,-1.22565915808081627e-02,-5.25055825710296631e-03,-8.11166130006313324e-03,-1.62112805992364883e-02,-8.24671797454357147e-03,-5.02572720870375633e-03,-3.71312396600842476e-03,-8.61083343625068665e-03,-1.45756860729306936e-03,3.09881172142922878e-03,1.66773796081542969e-04,-7.08487629890441895e-03,-1.78104005753993988e-02,-7.65851419419050217e-03,-1.54138706420781091e-05,-6.87137851491570473e-03,-6.53993198648095131e-03,8.07076692581176758e-04,1.04915872216224670e-02,-1.39564275741577148e-03,3.66127281449735165e-03,-1.18316411972045898e-02,1.25211616978049278e-02,-4.30956482887268066e-04],"default_left":[true,true,true,true,true,true,true,true,true,true,true,true,true,true,true,true,false,true,true,true,true,true,true,true,false,true,true,false,false,true,true,true,true,true,true,false,false,false,false,false,true,false,true,false,true,false,true,true,true,true,true,false,true,true,false,false,false,false,false,false,false,false,false,false,false,false,false,false,false,false,false,false,false,false,false,false,false,false,false,false,false,false,false],"id":11,"leaf_child_counts":[0,0,0,0,0,0,0,0,0,0,0,0,0,0,0,0,0,0,0,0,0,0,0,0,0,0,0,0,0,0,0,0,0,0,0,0,0,0,0,0,0,0,0,0,0,0,0,0,0,0,0,0,0,0,0,0,0,0,0,0,0,0,0,0,0,0,0,0,0,0,0,0,0,0,0,0,0,0,0,0,0,0,0],"left_children":[1,3,5,7,9,11,13,15,17,19,21,23,25,27,29,31,-1,33,35,37,39,41,43,45,-1,47,49,-1,-1,51,53,55,57,59,61,-1,-1,-1,-1,-1,63,-1,65,-1,67,-1,69,71,73,75,77,-1,79,81,-1,-1,-1,-1,-1,-1,-1,-1,-1,-1,-1,-1,-1,-1,-1,-1,-1,-1,-1,-1,-1,-1,-1,-1,-1,-1,-1,-1,-1],"loss_changes":[9.52440872788429260e-03,5.39948418736457825e-03,4.90275584161281586e-03,1.25080905854701996e-03,4.26858663558959961e-03,1.88055529724806547e-03,1.98556599207222462e-03,9.11152921617031097e-04,9.94578003883361816e-05,1.05081498622894287e-03,5.51283964887261391e-03,1.46253756247460842e-03,1.23980466742068529e-03,3.09328199364244938e-04,1.41814071685075760e-03,1.71850435435771942e-04,0.00000000000000000e+00,3.07974405586719513e-05,2.78339721262454987e-05,2.55270861089229584e-04,8.41312110424041748e-04,9.15585085749626160e-04,2.27818544954061508e-03,2.89086383418180048e-05,0.00000000000000000e+00,7.28593324311077595e-04,9.48671251535415649e-04,0.00000000000000000e+00,0.00000000000000000e+00,6.71545567456632853e-04,7.01132696121931076e-04,3.58236953616142273e-04,6.45127729512751102e-05,9.76079609245061874e-05,3.95681709051132202e-05,0.00000000000000000e+00,0.00000000000000000e+00,0.00000000000000000e+00,0.00000000000000000e+00,0.00000000000000000e+00,4.22556884586811066e-04,0.00000000000000000e+00,5.42067922651767731e-04,0.00000000000000000e+00,7.86860066000372171e-04,0.00000000000000000e+00,4.12191438954323530e-05,1.98282883502542973e-04,4.65485150925815105e-04,1.15139468107372522e-04,1.58967101015150547e-04,0.00000000000000000e+00,4.39990457380190492e-04,4.44091157987713814e-04,0.00000000000000000e+00,0.00000000000000000e+00,0.00000000000000000e+00,0.00000000000000000e+00,0.00000000000000000e+00,0.00000000000000000e+00,0.00000000000000000e+00,0.00000000000000000e+00,0.00000000000000000e+00,0.00000000000000000e+00,0.00000000000000000e+00,0.00000000000000000e+00,0.00000000000000000e+00,0.00000000000000000e+00,0.00000000000000000e+00,0.00000000000000000e+00,0.00000000000000000e+00,0.00000000000000000e+00,0.00000000000000000e+00,0.00000000000000000e+00,0.00000000000000000e+00,0.00000000000000000e+00,0.00000000000000000e+00,0.00000000000000000e+00,0.00000000000000000e+00,0.00000000000000000e+00,0.00000000000000000e+00,0.00000000000000000e+00,0.00000000000000000e+00],"parents":[2147483647,0,0,1,1,2,2,3,3,4,4,5,5,6,6,7,7,8,8,9,9,10,10,11,11,12,12,13,13,14,14,15,15,17,17,18,18,19,19,20,20,21,21,22,22,23,23,25,25,26,26,29,29,30,30,31,31,32,32,33,33,34,34,40,40,42,42,44,44,46,46,47,47,48,48,49,49,50,50,52,52,53,53],"right_children":[2,4,6,8,10,12,14,16,18,20,22,24,26,28,30,32,-1,34,36,38,40,42,44,46,-1,48,50,-1,-1,52,54,56,58,60,62,-1,-1,-1,-1,-1,64,-1,66,-1,68,-1,70,72,74,76,78,-1,80,82,-1,-1,-1,-1,-1,-1,-1,-1,-1,-1,-1,-1,-1,-1,-1,-1,-1,-1,-1,-1,-1,-1,-1,-1,-1,-1,-1,-1,-1],"split_conditions":[6.07932739257812500e+02,6.43483114242553711e+00,1.27233114242553711e+01,3.04772347211837769e-01,4.93886962890625000e+02,3.16727104187011719e+01,2.64827003479003906e+01,5.69546997070312500e+02,1.67431755065917969e+01,6.62826347351074219e+00,1.22763071060180664e+01,6.38105834960937500e+02,6.82581542968750000e+02,1.88329544067382812e+01,1.53689355850219727e+01,5.30148193359375000e+02,-1.14689674228429794e-02,3.51442909240722656e+00,4.85875854492187500e+01,4.20272766113281250e+02,4.15704254150390625e+02,3.78912639617919922e+00,2.27513771057128906e+01,6.12387268066406250e+02,-9.67637822031974792e-03,1.52637329101562500e+01,9.74935626983642578e+00,-6.94094924256205559e-03,-1.01369025651365519e-03,3.16696319580078125e+01,6.98877197265625000e+02,4.50420959472656250e+02,2.89391288757324219e+01,2.67796373367309570e+00,4.06047241210937500e+02,-2.75815650820732117e-03,-1.04027509223669767e-03,-3.09753837063908577e-03,-5.37373311817646027e-03,-3.14971292391419411e-03,1.48138904571533203e+01,-5.13542583212256432e-03,5.08897674560546875e+02,-8.29078722745180130e-03,1.57639312744140625e+01,1.22326615382917225e-04,2.55002059936523438e+01,4.02544832229614258e+00,4.95336227416992188e+01,8.76061630249023438e+00,1.24378128051757812e+01,6.56428653746843338e-03,7.44394775390625000e+02,2.58119239807128906e+01,7.12753133848309517e-03,-3.64388222806155682e-03,-7.55786057561635971e-03,-5.40266418829560280e-03,-2.24070274271070957e-03,-3.67697770707309246e-03,-1.57516752369701862e-03,-2.43349839001893997e-03,-4.86338417977094650e-03,-2.47401557862758636e-03,-1.50771823246032000e-03,-1.11393723636865616e-03,-2.58325017057359219e-03,-4.37270588008686900e-04,9.29643574636429548e-04,5.00321402796544135e-05,-2.12546298280358315e-03,-5.34312054514884949e-03,-2.29755439795553684e-03,-4.62416119262343273e-06,-2.06141360104084015e-03,-1.96197978220880032e-03,2.42123016505502164e-04,3.14747635275125504e-03,-4.18692856328561902e-04,1.09838193748146296e-03,-3.54949245229363441e-03,3.75634874217212200e-03,-1.29286956507712603e-04],"split_indices":[1,3,2,3,1,0,0,1,2,2,2,1,1,0,2,1,0,3,0,1,1,2,0,1,0,3,2,0,0,0,1,1,0,3,1,0,0,0,0,0,2,0,1,0,2,0,0,3,0,2,2,0,1,3,0,0,0,0,0,0,0,0,0,0,0,0,0,0,0,0,0,0,0,0,0,0,0,0,0,0,0,0,0],"sum_hessian":[1.00000000000000000e+03,8.60000000000000000e+02,1.40000000000000000e+02,7.50000000000000000e+01,7.85000000000000000e+02,8.20000000000000000e+01,5.80000000000000000e+01,2.60000000000000000e+01,4.90000000000000000e+01,4.49000000000000000e+02,3.36000000000000000e+02,7.00000000000000000e+00,7.50000000000000000e+01,3.00000000000000000e+00,5.50000000000000000e+01,2.30000000000000000e+01,3.00000000000000000e+00,4.00000000000000000e+01,9.00000000000000000e+00,3.10000000000000000e+01,4.18000000000000000e+02,1.71000000000000000e+02,1.65000000000000000e+02,4.00000000000000000e+00,3.00000000000000000e+00,5.50000000000000000e+01,2.00000000000000000e+01,1.00000000000000000e+00,2.00000000000000000e+00,2.80000000000000000e+01,2.70000000000000000e+01,1.60000000000000000e+01,7.00000000000000000e+00,1.80000000000000000e+01,2.20000000000000000e+01,6.00000000000000000e+00,3.00000000000000000e+00,1.40000000000000000e+01,1.70000000000000000e+01,1.70000000000000000e+02,2.48000000000000000e+02,1.10000000000000000e+01,1.60000000000000000e+02,2.00000000000000000e+00,1.63000000000000000e+02,1.00000000000000000e+00,3.00000000000000000e+00,1.40000000000000000e+01,4.10000000000000000e+01,8.00000000000000000e+00,1.20000000000000000e+01,1.00000000000000000e+00,2.70000000000000000e+01,2.10000000000000000e+01,6.00000000000000000e+00,7.00000000000000000e+00,9.00000000000000000e+00,1.00000000000000000e+00,6.00000000000000000e+00,1.30000000000000000e+01,5.00000000000000000e+00,4.00000000000000000e+00,1.80000000000000000e+01,1.88000000000000000e+02,6.00000000000000000e+01,3.00000000000000000e+01,1.30000000000000000e+02,1.05000000000000000e+02,5.80000000000000000e+01,1.00000000000000000e+00,2.00000000000000000e+00,3.00000000000000000e+00,1.10000000000000000e+01,2.60000000000000000e+01,1.50000000000000000e+01,5.00000000000000000e+00,3.00000000000000000e+00,1.10000000000000000e+01,1.00000000000000000e+00,2.60000000000000000e+01,1.00000000000000000e+00,1.80000000000000000e+01,3.00000000000000000e+00],"tree_param":{"num_deleted":"0","num_feature":"4","num_nodes":"83","size_leaf_vector":"0"}},{"base_weights":[-4.79968311265110970e-03,-6.32480625063180923e-03,-1.42712891101837158e-03,-1.04072550311684608e-02,-5.74848521500825882e-03,-1.85790397226810455e-02,-6.21949264314025640e-04,-7.45714781805872917e-03,-1.16011463105678558e-02,-2.70009245723485947e-02,-5.63340960070490837e-03,-2.23633199930191040e-02,-9.80611052364110947e-03,-3.60817275941371918e-03,3.76457488164305687e-03,-1.21881924569606781e-02,-2.94081121683120728e-03,-7.08404788747429848e-03,-4.02775174006819725e-03,-1.11403232440352440e-02,-2.91136521846055984e-02,-3.52208130061626434e-03,-1.20676048099994659e-02,-7.73884076625108719e-03,-2.03557033091783524e-03,2.20508407801389694e-03,1.26524604856967926e-02,-1.30888037383556366e-02,-6.23082602396607399e-03,-6.68368535116314888e-03,-9.12921410053968430e-03,-7.85110704600811005e-03,-2.52670142799615860e-03,-1.53075484558939934e-02,-6.27163005992770195e-03,-7.65823666006326675e-03,-3.25629487633705139e-02,-1.46084995940327644e-02,-6.80357124656438828e-03,-2.57568731904029846e-02,-1.65496894624084234e-03,-6.04066811501979828e-03,3.33400559611618519e-03,-8.62509012222290039e-04,1.34981945157051086e-02,-1.07232565060257912e-02,-1.68540012091398239e-02,-9.50441882014274597e-03,-1.71106739435344934e-03,-7.06982566043734550e-03,-1.54205493163317442e-03,-1.47600080817937851e-02,-6.45518209785223007e-03,-1.60382054746150970e-02,-6.85991905629634857e-03,-3.09492438100278378e-03,1.98230496607720852e-03,-1.85900705400854349e-03,-7.12283514440059662e-03,-8.19433573633432388e-03,-4.65539842844009399e-03,-2.60329595766961575e-03,5.26456721127033234e-03,-8.27020313590764999e-03,1.03568732738494873e-02,1.18127362802624702e-02,2.39703408442437649e-03,7.45953107252717018e-03,1.53926759958267212e-02],"default_left":[true,true,true,true,true,true,true,false,true,false,true,true,true,true,true,true,false,true,true,true,true,false,false,true,true,true,true,true,true,true,true,true,true,false,true,false,false,false,true,false,true,true,true,false,true,false,false,false,false,false,false,false,false,false,false,false,false,false,false,false,false,false,false,false,false,false,false,false,false],"id":12,"leaf_child_counts":[0,0,0,0,0,0,0,0,0,0,0,0,0,0,0,0,0,0,0,0,0,0,0,0,0,0,0,0,0,0,0,0,0,0,0,0,0,0,0,0,0,0,0,0,0,0,0,0,0,0,0,0,0,0,0,0,0,0,0,0,0,0,0,0,0,0,0,0,0],"left_children":[1,3,5,7,9,11,13,-1,15,-1,17,19,21,23,25,27,-1,29,31,33,35,-1,-1,37,39,41,43,45,47,49,51,53,55,-1,57,-1,-1,-1,59,-1,61,63,65,-1,67,-1,-1,-1,-1,-1,-1,-1,-1,-1,-1,-1,-1,-1,-1,-1,-1,-1,-1,-1,-1,-1,-1,-1,-1],"loss_changes":[5.13967871665954590e-03,1.56125240027904510e-03,4.31108940392732620e-03,2.09345482289791107e-04,1.32995285093784332e-03,2.45492439717054367e-04,3.94332548603415489e-03,0.00000000000000000e+00,2.59030610322952271e-04,0.00000000000000000e+00,1.37832015752792358e-03,3.57495155185461044e-04,4.27647028118371964e-05,1.14701292477548122e-03,1.66309019550681114e-03,2.08171084523200989e-04,0.00000000000000000e+00,1.97727233171463013e-04,1.63874775171279907e-03,5.44142676517367363e-06,1.20655633509159088e-04,0.00000000000000000e+00,0.00000000000000000e+00,2.15434003621339798e-04,1.14008830860257149e-03,9.97564406134188175e-04,2.17383494600653648e-04,2.28980556130409241e-04,1.16899958811700344e-04,5.21183013916015625e-04,6.42510596662759781e-04,5.47290313988924026e-04,5.41618210263550282e-04,0.00000000000000000e+00,1.78278423845767975e-06,0.00000000000000000e+00,0.00000000000000000e+00,0.00000000000000000e+00,9.62943304330110550e-05,0.00000000000000000e+00,